93.94
-0.907848 -0.652044 -2.8476 -0.088191 -2.01128 -0.721641 -2.35206 -0.770453 -0.638826 0.0554181 0.597302 -0.0807349 0.555536 -0.0233374 -0.716099 -2.36906 -0.731144 -0.157716 0.0138703 1.5603 1.35642 -0.881413 0.396563 -1.24644 1.05023 -0.177115 0.67569 -1.07426 0.192989 -0.588329 -0.0378761
0.075845 -1.0088 0.123892 2.32968 0.254197 0.748497 -0.607474 2.03611 -1.09828 -0.645335 -1.00957 1.13408 0.877045 -1.18798 -1.38527 0.00515094 -0.185609 -1.67498 0.00459065 -1.67533 -0.45082 1.20408 -0.0176983 -0.0857537 -1.34834 -0.953816 1.25111 0.987053 -0.840166 0.4479 -1.55975
-0.565502 -1.6078 0.453011 -0.40974 1.08761 -1.54493 0.354984 -0.961427 -1.883 1.31574 0.0866825 -1.10247 -0.660042 -0.595391 -1.04045 -1.06614 0.906545 0.623885 1.37038 -1.26098 0.0742235 1.05771 -2.73042 -0.381485 2.31234 -0.747173 -0.977241 -1.28453 -0.960509 -0.633413 0.294153
-1.44837 -1.08667 0.446131 -0.572605 1.42604 -2.09882 -1.33284 -0.375456 0.885712 -0.84576 -2.547 -0.123007 -0.270932 0.228693 -2.11708 0.391831 0.422944 0.32201 0.133302 0.773254 -0.825806 -0.479744 1.1056 -1.0849 -1.88242 0.146816 -1.34622 0.819633 -1.86907 -1.19453 -0.219158
-0.434837 0.800289 1.09841 0.622651 -1.09447 0.887139 0.924478 -0.427906 1.41377 0.964434 -0.630544 -2.07151 1.57611 -1.7831 -0.0814157 -0.778235 -1.21113 -1.95371 -0.322533 -0.12972 -1.02084 -0.983511 0.103925 -0.578006 -1.16955 0.521443 -0.897856 0.323254 -0.882088 -0.906662 -1.82829
-0.810961 -0.0148198 -1.45724 -1.03453 -0.5129 -1.08876 1.16412 -0.636838 -0.525295 -1.07935 -3.19053 -1.3049 0.8227 0.622181 1.15817 1.31434 -1.14102 -0.330567 0.191207 -1.46752 0.870051 0.756976 -0.221721 2.08113 -1.11853 0.290081 1.82524 -2.27597 1.62171 1.31465 -0.344186
-1.00659 -0.637732 -0.738439 -0.454599 -0.558064 0.169272 1.24044 1.05017 1.41289 -1.31864 0.142103 0.636979 -1.20433 -1.8086 -1.29391 0.278074 -1.06357 -2.48707 -0.186492 -2.14688 0.913981 -2.07855 -0.174337 -2.1834 1.41932 -0.544127 -0.314862 -0.46107 0.24619 -0.534876 -0.406255
0.315238 2.13555 0.114172 0.589383 -0.339236 -1.32201 -1.45954 -0.259882 -1.06692 0.138511 0.277348 0.666261 -0.869382 -0.17199 0.695891 -1.32154 -1.94574 0.663077 -0.0743475 0.442812 -1.32805 1.44362 -1.84352 -0.886793 -1.4966 -0.648368 -0.365956 1.23664 0.252193 1.63566 -1.63682
-1.7504 -1.67585 -1.15042 -2.31541 -1.15001 1.40043 0.373135 -0.877595 -1.71542 -1.8537 1.22925 0.84108 -1.74602 -0.518274 -1.17995 0.242604 1.11133 -0.435108 0.345289 0.926356 -2.65669 -1.54505 -0.731913 1.23845 -1.44745 -0.786337 -1.09064 -2.57431 -1.73978 0.0720073 -0.0613266
-0.859329 0.178837 -0.10966 0.855001 -1.49792 0.514239 -1.73069 0.0879124 -1.94812 -0.325683 -0.91382 -3.58318 -0.00163224 0.483191 1.43778 -0.159565 1.59932 0.559657 0.175904 -0.634837 -1.22627 -1.47252 0.000778729 0.198708 -0.359094 -2.75959 -0.0332247 0.129411 -0.67508 -1.03928 0.812355

1.13284 -0.0165401 -0.191239 0.133544 -0.185751 0.0172718 0.147967 0.0207766 -0.0819633 0.097152 0.0428486 0.389879 0.0674701 0.184427 0.142027 -0.0241948 -0.0629027 -0.127505 0.239072 -0.165526 -0.478375 -0.131422 -0.0866778 -0.359053 0.018844 -0.152704 0.00870098 -0.0229727 -0.11373 0.0165037 0.204955 0.135346 -0.0388199 0.360796 0.262296 0.10054 0.28894 0.376649 0.0931239 0.00193911 0.243073 -0.23291 -0.00245952 -0.0683168 0.00566942 0.290544 0.0205051 0.0324318 0.132713 0.0619589 -0.175476 -0.106491 0.235878 0.321331 -0.109572 -0.0427236 0.423025 0.0600729 0.0103552 0.30822 -0.288753 0.181732 0.0826836 0.223525 -0.0710118 0.358119 0.234448 -0.116686 0.125074 0.297381 0.0941845 0.0473233 -0.105799 0.0578954 -0.0863076 0.322378 0.256715 0.252086 0.131146 0.0604068 0.285454 0.0897005 0.379886 0.349033 0.240371 0.0290045 0.0154334 0.0278515 -0.330572 0.189995 -0.0306373 0.18393 0.197948 -0.116827 0.0267795 0.384111 -0.00425562 0.160443 -0.504358 0.261729 -0.0338063 -0.0758723 -0.0590802 -0.0863125 0.315041 0.185553 0.101005 -0.22045 0.111613 0.114553 -0.00865426 -0.152477 -0.164102 -0.141989 0.141211 -0.106466 0.211095 -0.0423003 -0.00756982 0.0403651 0.0779686 0.351712 0.243715 0.283619 0.418813 -0.0681889 0.35461 0.167434 -0.0914568 0.382872 0.234838 0.192172 0.192317 -0.169205 0.177267 0.420562 0.176175 -0.227092 0.0126409 -0.191164 0.0046296 -0.0590262 -0.0991722 0.147113 0.121126 0.368163 -0.0589926 -0.101872 0.126331 0.111176 -0.317006 0.0808165 0.368693 0.522857 0.113245 0.332199 0.209732 0.0794548 0.125093 0.105153 0.117984 -0.143126 0.0930897 0.214899 0.174903 -0.0320798 -0.0645751 0.0640867 0.107476 -0.0881529 -0.150739 0.409659 -0.45503 0.0502048 -0.0424593 -0.324899 0.157432 0.00443231 -0.079681 0.0610441 0.325254 -0.0125264 -0.0223217 -0.156964 0.0648273 -0.0796639 -0.276758 0.0573922 0.0820302 0.37356 -0.0970704 0.0480589 -0.253173 -0.034379 -0.216046 0.174973 0.101116 -0.181948 0.0805143 0.0497465 0.0837084 -0.0201184 0.0597761 0.17697 -0.125692 -0.126993 0.0106956 0.119145 0.135487 0.235693 0.0881917 -0.0222324 -0.0456835 -0.0158633 0.0541589 -0.0309932 0.122287 -0.0420712 0.137955 0.00175486 -0.0583816 0.287013 -0.240456 0.205381 0.218973 -0.0859295 0.0350122 -0.371928 -0.106172 -0.297461 -0.0533093 0.12819 -0.131098 0.236869 0.270301 0.0092475 -0.282254 -0.170665 -0.00741881 -0.461259 0.0157821 0.152368 -0.00717701 0.267164 -0.194875 -0.22431 0.0399903 0.104559 -0.00829406 -0.011695 -0.219533 -0.0204292 -0.29671 0.015647 -0.0768681 0.0791342 -0.364462 0.0823747 -0.00915859 0.122892 0.0506708 0.0699399 0.2473 -0.122309 -0.0484203 0.210157 0.177878 -0.115486 -0.211911 -0.0726628 -0.0886362 -0.0657782 0.0178951 -0.0165158 0.0196168 -0.017285 0.14601 0.0739333 0.215298 -0.223951 0.0158388 0.167316 0.441193 0.103649 0.378379 0.18945 0.417874 0.227609 -0.276594 0.284341 0.151306 0.50504 0.190003 -0.176479 0.0657286 -0.246648 0.171309 -0.213908 0.198852 0.0941151 -0.289189 0.126712 -0.233564 0.0664304 0.0025983 0.186683 0.0654823 0.0885047 -0.115224 0.233653 -0.10646 0.188647 -0.281792 0.328107 0.0896526 0.155057 0.22376 0.0769239 -0.0732419 0.0414798 0.0648957 -0.432468 -0.0954448 0.105995 -0.0345324 0.056837 0.187666 0.0297195 0.0783539 -0.0341874 0.0554623 0.351579 -0.0800694 0.234139 0.202432 0.0565469 0.220087 0.281444 -0.170702 0.000872248 -0.139687 -0.186435 0.268491 -0.0025496 -0.66086 -0.012719 -0.12222 0.0705953 -0.236714 -0.32794 0.216056 -0.194418 0.0585029 -0.0739188 0.21667 0.404798 -0.0492746 -0.095117 0.216972 -0.151545 -0.0609584 -0.207901 0.217654 0.145881 0.0417062 -0.236782 0.125739 0.203724 0.301927 -0.125345 0.0602227 0.310386 0.24127 -0.0515501 -0.136262 -0.195747 0.0629554 -0.218325 -0.0649752 -0.344521 0.333529 -0.072908 -0.159544 -0.145298 0.432772 0.18952 0.0638933 0.196129 -0.0358232 0.393535 0.268146 0.353752 0.334389 -0.285184 0.174971 -0.184353 0.0346833 0.174552 -0.28778 -0.170364 0.183655 0.143527 -0.0945699 0.182725 0.0708881 -0.217278 0.309434 -0.0908879 0.067839 -0.0614208 -0.0126156 0.0997351 0.179444 0.141038 0.367842 -0.0523935 0.172454 0.0739815 0.0111206 0.219409 0.0683478 0.129034 -0.114226 0.0245917 0.106317 0.0109666 -0.189981 -0.18104 0.00838116 -0.189923 0.284952 0.173292 0.0711639 -0.0549823 -0.146358 0.11124 0.301709 -0.0496731 -0.0495163 0.147909 0.070255 0.245119 -0.175085 -0.106436 0.181557 -0.107308 0.102577 -0.0565653 0.276262 -0.0241307 0.0456364 -0.1202 0.125215 0.146035 0.00907123 -0.204796 0.282187 0.139198 -0.103881 -0.208973 0.287686 0.115055 -0.0831434 0.164929 -0.0911336 0.224059 -0.250785 0.199053 0.233844 -0.188409 0.0061539 0.165153 0.153717 0.154776 0.236698 -0.144855 -0.070228 -0.0921943 0.229182 0.0496331 -0.268681 -0.110531 -0.102367 -0.0438265 0.0969534 0.169568 -0.192465 0.0244227 -0.20055 0.0635077 0.146414 0.0511185 0.192648 0.338213 0.319981 -0.0896473 0.176919 0.182719 -0.0425212 0.0405397 0.193651 0.0723976 -0.115514 0.278893 -0.133264 -0.438175 -0.145417 0.271525 -0.523832 -0.150141 0.30611 -0.110957 -0.277886 0.163966 0.265991 -0.355163 -0.00434204 -0.0479379 -0.17515 -0.197836 -0.0945875 -0.248858 0.043961 0.451798 0.0650977 -0.0675499 0.0783763 0.484814 0.162443 0.162328 0.0817082 0.21544 -0.151076 0.0501468 -0.620097 -0.0134233 -0.0189285 -0.241814 -0.209391 -0.0479646 -0.18102 -0.0833429 0.301631 0.0510349 -0.0575477 0.203862 -0.235273 -0.0273663 0.0738211 0.0103943 -0.230653 0.119238 0.0148025 -0.0758959 -0.101159 -0.183634 -0.101903 -0.203149 -0.215532 -0.450021 -0.231626 -0.0563034 -0.0616224 -0.507201 -0.256839 -0.181766 -0.390576 -0.582338 0.235688 -0.0480109 -0.189378 0.152648 0.0787351 0.0538229 -0.113658 0.0762549 0.181434 0.0466235 -0.128173 0.138772 0.00432507 -0.10304 -0.22526 -0.189973 -0.0988937 -0.139275 -0.108099 -0.395855 -0.194579 -0.134156 0.174009 0.113411 0.213043 -0.0425109 -0.228446 -0.0614262 -0.215003 -0.220837 -0.250973 0.200356 -0.254251 -0.304812 -0.00805676 -0.151963 -0.148704 0.205935 0.0227217 0.157778 0.0234481 0.252154 -0.127703 0.115828 0.22127 -0.0419949 0.0580851 0.097596 -0.133062 -0.231794 -0.381302 -0.337699 -0.653074 -0.106307 -0.291877 -0.163043 -0.162104 -0.187704 -0.114686 -0.0428808 0.000178384 -0.238676 -0.295218 -0.204996 -0.0825975 -0.196782 -0.029016 -0.313619 -0.209547 -0.188306 -0.505569 -0.116183 -0.219053 -0.010417 -0.23116 -0.365404 0.00797429 -0.0211049 -0.0676189 -0.558581 -0.597146 -0.387642 -0.281782 -0.212975 0.0128792 -0.443273 -0.435969 0.143225 -0.0975347 -0.474343 -0.115124 -0.145976 -0.324918 -0.124936 -0.395584 -0.175945 -0.210149 -0.395219 -0.198885 -0.193202 -0.39758 -0.267569 -0.297041 -0.469416 -0.205849 -0.161073 -0.0103948 -0.0924359 -0.219209 -0.106928 -0.135168 -0.13416 0.135813 0.156872 0.521402 -0.196215 -0.329087 0.0180991 0.140055 0.220713 -0.0835141 -0.102763 0.156499 0.0417629 -0.104485 -0.0948843 -0.0881849 0.0439942 -0.0617589 -0.0510472 -0.0720549 0.192002 0.00136582 -0.087283 -0.18199 -0.153327 -0.104635 -0.515844 0.02817 -0.392695 -0.673646 -0.269051 0.0336583 -0.626286 -0.370923 0.0484426 -0.44051 -0.00310411 -0.183843 -0.514612 -0.109628 -0.41306 -0.446283 -0.385016 -0.121411 -0.473101 -0.373978 -0.42063 0.0652821 -0.0108594 -0.183474 0.172966 -0.236435 0.189463 -0.365783 -0.423886 -0.116019 -0.210147 -0.38887 -0.0695684 -0.360914 -0.219652 -0.428869 -0.578116 -0.213076 -0.797171 -0.681736 -0.347963 -0.527667 -0.448744 -0.350508 -0.5725 -0.217426 -0.433847 -0.39617 -0.538321 -0.108829 -0.352412 -0.0670238 -0.127704 0.0295546 0.116303 -0.158711 0.0883016 -0.0937179 -0.144927 -0.175566 0.0560552 0.178769 0.295555 -0.0833547 -0.191741 -0.0646086 -0.310779 -0.0990475 0.103604 0.362947 -0.405595 -0.0955465 -0.108391 0.105 0.111456 0.0563088 0.0124244 -0.249118 -0.171181 0.141565
-0.120857 0.123392 -0.0967276 -0.401236 -0.0301622 -0.0879601 -0.158483 0.221341 0.0655984 0.0766212 -0.247817 -0.0842907 -0.153528 -0.0649484 -0.0194461 -0.154026 0.0800343 0.324351 0.109867 -0.226382 -0.0316361 0.351069 0.293169 0.0147004 0.324524 0.464809 -0.128683 -0.153631 0.239438 -0.183329 -0.0113541 0.237871 -0.0130037 -0.0506908 0.0558145 -0.138913 0.203493 -0.0846617 0.312906 0.0538163 -0.043473 0.27596 -0.0205818 0.223096 -0.0718794 0.0264942 0.0590035 -0.305424 -0.173893 0.0977398 -0.306771 -0.239649 0.0384018 0.115155 -0.159442 0.345812 -0.117065 0.262636 0.126029 -0.0168438 0.0322207 0.199569 0.191801 0.0850885 0.0943632 -0.0895367 -0.156156 0.12293 0.128135 -0.124098 -0.248651 0.0357003 -0.104792 0.0566113 -0.240066 -0.21861 -0.0535451 -0.401284 0.070811 -0.0936709 -0.0235779 0.0280171 0.159758 0.00891445 -0.0270936 -0.0970357 -0.194717 0.105183 0.0440292 0.117086 0.216743 -0.0982099 -0.129025 0.00541486 -0.0748998 -0.0437017 0.0554886 0.114115 -0.100004 -0.242172 0.0312965 -0.0570363 0.102974 0.246924 -0.187359 -0.347564 0.162905 -0.181176 -0.210775 0.100183 0.0416057 -0.112901 0.184894 -0.0319522 0.0209444 0.0709577 -0.20627 0.429531 0.164063 -0.041991 -0.0356528 0.00840834 0.126792 0.0403549 -0.182565 0.00331577 0.207183 0.122475 0.165773 -0.279935 -0.0291039 -0.0936305 -0.339204 0.419259 0.012732 -0.20446 0.213949 0.0702929 0.0669761 -0.109269 -0.0239035 0.14996 0.345664 0.013849 -0.0960247 0.0570763 -0.187675 -0.21605 0.236465 -0.192929 -0.0676154 -0.153138 -0.305201 0.0555464 -0.293258 -0.0802675 -0.115039 -0.202087 -0.014921 0.0545745 -0.0975891 0.0156802 0.184382 -0.0797031 0.19852 -0.197488 0.388586 0.117572 -0.221959 -0.189329 0.165713 -0.166906 -0.136451 -0.351234 0.0113192 0.0981031 0.168855 -0.109109 -0.0907728 -0.0965881 0.0403412 -0.0607335 -0.0863402 -0.0653468 0.174961 0.110695 -0.187092 -0.132466 -0.11199 -0.182342 -0.0996928 0.0922399 0.0278612 -0.0578031 0.275934 -0.0628809 -0.154484 0.254101 -0.168429 0.0461115 -0.0654629 0.201836 -0.299423 -0.189472 0.338146 -0.213131 0.0532511 -0.0635223 -0.217503 -0.147487 -0.109083 0.12656 0.0799995 -0.0526106 -0.179469 -0.144022 -0.163188 -0.286779 -0.0484061 -0.129001 0.033322 -0.0388985 0.380412 -0.188157 -0.113424 -0.013895 0.110787 -0.770259 0.039478 -0.0944547 -0.23059 -0.491102 -0.0375644 -0.00598898 -0.117058 0.100079 0.270104 -0.465643 -0.0253061 -0.195307 -0.0561638 -0.0352343 -0.234108 0.121212 0.0953223 -0.142835 0.186194 0.158543 0.229712 0.0737975 0.181057 0.0993756 -0.0110688 -0.102597 -0.143532 -0.156192 0.48244 0.154022 0.0931647 -0.312726 0.151667 -0.11278 0.122286 -0.152947 -0.12189 0.185886 0.316304 -0.265996 -0.0668256 -0.0243756 0.0783204 -0.0591027 -0.0735912 0.0855281 -0.136624 -0.169541 0.168478 -0.271865 0.236067 -0.167978 -0.0642462 0.130451 -0.112781 -0.220835 -0.124588 -0.132567 -0.223004 -0.0779486 -0.198863 0.112107 0.246436 -0.430105 -0.0136852 -0.567237 -0.151019 -0.423043 -0.0122896 0.0607394 0.328922 0.365224 0.0865034 -0.0488038 0.350979 0.239849 0.0196624 0.0193783 0.0325959 -0.308467 0.122428 -0.158825 -0.453815 -0.0458269 -0.255338 -0.553455 -0.297281 -0.0340459 -0.281332 -0.0728642 0.148022 -0.331763 0.119103 0.029643 -0.299511 -0.254879 -0.0186998 -0.0494622 0.0107785 0.120095 -0.0602628 -0.0772167 0.156837 0.0744911 0.174066 0.00911169 -0.0117174 -0.155852 0.122749 0.072013 0.137595 -0.169908 -0.12737 0.0312524 0.141479 0.0525809 0.153175 0.0186436 0.208348 -0.0460898 -0.014819 0.0191132 -0.235562 -0.20689 0.172866 -0.256118 -0.0662707 -0.152487 -0.0259214 -0.236761 -0.430419 0.245055 0.130287 0.307854 -0.345149 0.36436 -0.236826 -0.38663 -0.164421 -0.0980442 -0.21171 0.125198 -0.332277 0.0675407 -0.11764 -0.0845309 -0.256634 -0.307685 -0.00338587 -0.42154 -0.0136525 -0.00171694 0.455245 0.2862 0.0184513 0.23946 0.352712 0.116967 -0.151385 -0.0367553 0.394228 0.104108 0.191396 0.553624 -0.270369 -0.308162 -0.0761348 -0.286381 0.0878753 -0.00450863 -0.279619 -0.271457 -0.314496 -0.368603 -0.0485326 -0.12527 0.0227502 0.114782 -0.183445 -0.0459179 0.392181 0.313599 0.39478 -0.00258694 0.395084 0.181049 0.232028 0.135773 0.0305463 0.0876788 -0.285255 -0.0695696 0.243371 -0.00742909 -0.0358557 0.337867 -0.129508 -0.405786 0.212532 -0.351356 -0.0191017 -0.0878375 0.134607 0.0895016 0.0646964 0.046655 -0.269761 0.0130554 0.158546 0.249891 -0.117243 -0.100139 0.355043 0.327313 0.0860778 0.190848 0.13679 0.0750133 0.0867867 0.0740209 -0.579779 -0.159255 -0.0983101 0.0207463 -0.104772 -0.154411 0.0878454 -0.14496 0.10423 -0.33168 -0.470825 -0.508577 -0.288424 0.359212 0.0050294 0.296883 0.0271499 0.417195 0.032669 0.205466 0.0900605 0.0750411 0.0447229 0.0458041 0.282897 -0.153071 0.150336 -0.0993263 -0.0432356 -0.0400946 0.0496373 -0.0865469 -0.0216894 0.141286 -0.0242994 -0.15897 -0.526418 -0.274615 -0.522441 0.0790852 -0.00251271 0.350507 0.511222 0.584795 0.165397 0.603347 0.261138 -0.00569848 0.355707 0.0730463 0.401001 -0.0674838 0.319751 0.270426 -0.168156 0.00732265 -0.10369 -0.0481764 -0.181474 -0.381359 -0.0399565 -0.0244613 -0.105569 -0.235615 0.345441 -0.17419 -0.0438723 0.473188 -0.162473 -0.0153804 -0.10735 -0.191414 0.101738 0.0298095 -0.109894 0.023559 0.0263002 -0.0699058 0.0693896 -0.116846 -0.179646 0.0732131 0.0186642 0.0555455 0.0794838 -0.144915 -0.303406 -0.0508843 -0.173559 0.072001 0.0406477 -0.218739 -0.153436 -0.129238 -0.508326 0.124018 0.200808 0.395143 0.55009 0.164664 0.0922681 -0.0841058 0.136087 0.402043 0.0641835 0.214774 0.331191 0.447827 0.169357 0.143869 0.299302 -0.0658272 0.118389 -0.126767 0.0677264 -0.0905238 -0.367019 -0.0110016 -0.155382 -0.00117822 -0.284772 -0.3786 -0.064701 0.181021 0.215532 0.567056 0.289929 0.371624 0.0332825 0.349194 0.0549912 0.0464362 -0.0148346 -0.100235 0.369325 0.509439 0.09029 0.0124141 0.144347 0.0438288 0.0403039 0.0570628 -0.0781094 -0.26363 -0.0429583 0.249804 -0.0422444 -0.301031 -0.218235 0.0900841 -0.10698 -0.307921 -0.0804798 0.0581892 -0.402831 0.183919 -0.0840102 -0.417952 0.127451 0.0795696 -0.298815 0.134221 -0.0985951 -0.0417454 0.227215 -0.14927 0.133626 0.191751 0.0501139 -0.202992 0.271415 0.00465821 -0.241037 -0.316777 -0.56093 -0.578032 -0.465383 -0.220242 -0.338867 -0.0644015 0.290295 0.0859777 0.201777 0.0713511 0.201145 0.0828375 0.216606 0.255551 -0.00858474 -0.0585279 -0.00837043 0.489557 0.182387 0.446326 -0.21014 0.0349819 0.383961 -0.40604 0.0252861 -0.0569101 -0.161295 -0.0497022 0.0845476 -0.179781 -0.409244 -0.308664 -0.112893 -0.16151 0.145624 0.302132 0.0501175 0.118376 0.00888116 -0.0208268 0.20531 -0.0826566 0.0606346 0.204102 0.189945 0.0370507 0.186669 0.0740533 0.0633535 0.258766 0.0512204 -0.0149861 -0.158753 -0.00442256 0.0745623 -0.178305 0.296777 0.0617755 -0.11724 -0.30936 0.0215049 -0.00788353 -0.139164 -0.00260288 -0.0923622 0.0910176 -0.195889 0.391759 0.0661386 0.348428 0.0734593 0.128834 -0.0338963 0.0378435 0.0108261 -0.136361 0.197104 -0.0621391 0.0958363 0.0427891 -0.230987 0.24714 -0.100981 -0.114422 -0.43604 0.110853 0.0465836 -0.216657 -0.322197 0.0248065 0.0853552 0.00348171 0.411172 -0.122228 0.190939 0.366904 -0.206826 0.0407751 0.293674 0.221701 -0.120346 0.154514 0.0501233 0.147301 0.409146 0.508881 -0.113835 0.0517044 -0.0952237 0.0446296 -0.219328 0.0168403 0.0309241 -0.12519 -0.270164 -0.288967 -0.193669 -0.550094 -0.55697 -0.153572 -0.204106 -0.0286764 -0.148752 -0.0560452 0.194837 0.0994061 0.337104 0.372109 0.098293 0.185671 0.227855 0.0268335 0.0205976 -0.0714977 0.134587 0.204739 -0.137554 0.0458013 0.28695 0.0776055 -0.285754 0.127001 -0.25409 -0.249859 -0.0363894 0.0795317 0.136224 -0.223388 0.0212892 0.0729426 -0.0414826 -0.200972 -0.25823 0.107986 0.194411 -0.14866 0.159416 0.13645 0.0211988 -0.0714086 0.0364643 0.120513 0.167568
0.969101 -0.415862 -0.0432763 0.127069 -0.0757864 0.101402 -0.138664 0.0896655 -0.0530818 -0.0477082 -0.142055 0.098278 0.141672 0.119557 0.0323556 -0.090186 -0.0460156 -0.30446 0.12624 -0.0333472 -0.17688 -0.0376074 -0.21359 -0.146664 -0.0888983 -0.159748 0.0227579 -0.147489 0.109202 0.14126 0.155482 -0.263767 -0.253344 -0.276434 -0.164614 -0.264314 -0.225455 -0.202883 0.0257973 0.209639 0.105214 0.20849 -0.110892 -0.311672 0.262754 0.175879 -0.108376 0.106407 0.117947 -0.0333247 0.0187918 -0.027013 -0.0290377 0.240368 0.0892337 0.206321 0.0460385 -0.20512 0.241554 -0.22861 0.000762799 -0.188667 0.12569 -0.0262548 -0.288402 -0.0695967 0.137179 0.17787 0.186221 -0.0485306 -0.0651804 0.252974 -0.47024 -0.362292 0.0763199 -0.374044 -0.247385 0.183166 -0.285335 0.035551 0.205166 -0.295315 0.275466 0.0318721 0.181712 -0.107811 0.113618 -0.0132279 -0.312725 0.0050679 0.0444673 0.0165505 0.308559 0.135941 -0.0951146 -0.209183 -0.071656 0.531323 -0.159939 -0.168099 0.0782869 0.277038 0.026972 -0.0179293 -0.023556 -0.117397 -0.085373 -0.0792453 0.311928 0.147769 -0.0388969 0.00471951 0.0222414 -0.103975 -0.285361 0.040325 -0.115516 -0.139225 0.000648308 0.0638295 -0.050077 -0.322276 -0.130551 0.111832 -0.269764 -0.0577454 0.110672 0.0932373 0.0600081 -0.310753 -0.281205 -0.00568941 -0.0904019 -0.0636648 -0.0748907 -0.192237 0.0165516 -0.406578 0.016089 -0.250275 -0.258902 0.0790726 0.154502 -0.187795 0.0583908 0.22502 -0.0466058 0.127341 -0.0630684 0.237378 0.0531222 0.272846 0.288371 0.106069 0.366349 -0.533021 0.0581655 -0.0931627 -0.0710468 0.0832009 -0.071056 0.00486736 -0.239722 -0.237952 -0.163422 -0.0971854 -0.269796 -0.319134 -0.239845 -0.0752559 -0.0352052 -0.18948 0.136751 0.331052 -0.305494 -0.285038 0.213387 -0.236228 -0.0822068 -0.0920003 0.0608634 -0.0565156 0.312461 -0.0284206 0.144784 0.438114 0.243479 0.32046 0.0474048 -0.308754 0.403359 0.158179 -0.190415 0.145927 -0.189172 0.0977713 0.167083 -0.121493 -0.0154973 -0.307253 -0.459036 -0.180973 -0.22639 0.0537976 0.167354 0.100781 -0.396815 -0.0182884 -0.0853454 -0.0553118 0.191895 0.335456 0.0902354 -0.246025 -0.125564 -0.249602 -0.289129 -0.18326 -0.261335 0.015933 -0.1478 -0.184705 -0.0426498 -0.138528 -0.208442 -0.279095 -0.0528267 0.046242 0.120659 0.187227 0.178477 -0.194605 -0.0168173 -0.341256 0.0815997 -0.106877 0.0507627 -0.198798 0.201225 0.415912 0.192578 0.334432 -0.0397948 -0.0512485 -0.0995931 0.00981259 -0.000235295 -0.172105 -0.456336 -0.37382 -0.196914 -0.291505 -0.079492 0.11125 -0.203794 0.153626 -0.099568 -0.0933445 0.256596 -0.143091 0.0547741 0.240122 -0.0142031 -0.00501253 0.0956113 0.327126 0.122388 -0.0158879 -0.155045 0.123026 -0.0187299 0.0864495 -0.151801 -0.171601 0.204523 0.14333 0.331806 -0.0205844 0.204104 -0.0370266 0.174068 -0.0131724 -0.117654 -0.119432 0.172171 -0.0917915 -0.183673 0.33228 0.442996 -0.197689 0.0482337 0.204649 0.114763 0.191771 0.324959 0.295095 0.641107 0.472256 0.209982 0.113892 0.361423 0.0756654 -0.110208 -0.0879694 -0.0962351 0.167518 0.024652 0.23291 0.0369086 -0.0723465 -0.00226135 -0.0597893 -0.038946 -0.254354 -0.0865073 0.0865762 -0.062965 0.161914 0.0118819 -0.150175 0.100606 0.487544 0.236904 0.653006 0.510246 0.177384 -0.0211704 0.185779 0.144445 0.0798644 0.337564 -0.272356 0.12211 0.0753692 -0.0605987 -0.283703 0.00747546 0.267919 0.143676 0.120623 -0.160701 -0.130835 0.160122 0.166365 -0.287966 0.0441126 -0.101247 0.134526 0.078934 0.120135 0.0042199 -0.148292 -0.10886 0.0754665 -0.0267886 -0.235316 0.323291 0.0368052 -0.0526426 -0.101553 0.015072 0.105695 -0.371977 0.0381881 0.0735102 0.0376828 -0.0238789 0.251713 0.217123 -0.137416 -0.152088 0.0257209 -0.140369 -0.178783 -0.134286 -0.128028 0.282998 0.324847 -0.308235 0.324096 0.169369 0.253492 0.457962 0.0253525 -0.0358415 -0.196399 -0.0994305 -0.112913 0.0100025 -0.00328286 -0.171063 -0.120683 -0.0595263 0.143783 -0.00800477 0.12372 -0.297309 -0.223089 0.279621 -0.0155724 -0.112311 -0.151109 0.275386 0.251184 -0.0100999 0.369982 0.278346 0.304354 0.280729 0.0929704 -0.0803852 0.0610174 -0.237061 -0.157446 0.0823307 -0.1214 0.0547507 -0.0961471 0.0154186 0.127488 -0.113843 -0.365637 -0.232581 -0.0332072 -0.60241 -0.0592023 0.0815062 -0.218394 -0.0875012 0.13488 -0.183407 0.0336984 0.279637 0.104141 -0.130435 0.207396 0.088553 -0.128468 0.126505 0.0101229 -0.282324 0.105301 0.00482087 -0.152338 0.00282048 0.0452387 -0.0335849 0.0796671 0.10914 -0.221323 -0.170532 0.000846034 -0.20878 -0.209828 -0.0395327 -0.0332235 -0.00811858 -0.308147 0.305293 0.210888 0.131285 -0.0670336 0.4513 0.117729 0.30086 0.0799259 0.138421 0.220188 -0.123609 -0.334602 -0.286004 -0.23851 -0.610409 -0.0466241 0.137308 -0.213128 -0.167167 -0.0250575 0.102293 -0.155679 0.0587876 -0.197202 -0.0361697 -0.0602397 -0.0487448 -0.0253374 0.090086 0.0527668 0.0263046 0.322719 -0.0977936 0.176565 -0.187685 -0.105621 -0.0408648 -0.304436 -0.237473 -0.123567 -0.292757 -0.205834 -0.0351089 0.0145043 -0.0973877 -0.0944361 -0.205552 0.0991729 -0.13138 -0.101277 0.0228857 0.0633022 0.0869649 0.23232 0.191228 0.0336926 0.0747805 0.0504972 -0.0682585 -0.0572958 0.195582 -0.155846 0.071319 0.0499114 -0.142643 0.182878 0.134702 0.138916 -0.0450502 0.0396538 0.150621 0.130222 -0.0192169 -0.204802 -0.0207201 -0.0752746 -0.200501 -0.197326 -0.12178 -0.168128 -0.345677 0.0118866 0.15777 -0.0776466 0.10026 0.265671 -0.339032 0.0100704 0.191 0.121739 -0.18758 -0.0242396 -0.625149 -0.359863 -0.572191 -0.696352 -0.602498 -0.359331 -0.140345 -0.0387736 -0.0965378 0.196133 -0.278279 -0.202475 -0.654571 -0.530393 -0.018438 -0.0746677 -0.507713 -0.278703 -0.120897 0.147084 -0.216877 -0.0240305 0.025127 0.155482 0.0304636 0.377413 -0.352633 -0.410728 -0.185229 -0.387826 -0.146603 0.0942446 -0.306293 -0.28098 -0.140008 -0.0926306 -0.380929 -0.169288 -0.0260992 -0.139266 -0.126908 0.178583 -0.0279047 0.125182 0.0710846 -0.53657 -0.254567 -0.127875 0.139139 0.10601 -0.0512363 0.0427475 0.0540251 -0.279745 -0.186653 0.0057698 0.0372362 -0.0827258 -0.0919913 0.44299 -0.107908 -0.329094 0.132943 -0.0777631 0.0281824 -0.0392949 0.194181 -0.153681 -0.201469 -0.441141 -0.278276 0.0918203 0.117132 -0.302861 0.024952 -0.0764749 -0.182991 -0.136079 0.0959722 -0.0356443 0.034857 0.119754 0.0506657 -0.409423 -0.0881418 -0.835377 -0.484271 -0.297667 -0.349254 -0.151362 -0.209074 0.182962 -0.0237358 -0.238306 -0.0133964 -0.475608 -0.0785067 -0.06068 0.0956764 -0.58963 -0.264978 -0.0665956 -0.0499196 -0.113391 0.238597 0.0638214 0.0955341 -0.127104 -0.0608738 -0.139952 -0.117155 -0.13021 -0.353395 -0.44767 -0.0682316 -0.153473 -0.277953 -0.132376 0.243817 -0.159636 -0.141731 0.174488 0.138666 0.0468092 0.0349186 -0.0717688 -0.240664 -0.208604 0.20582 0.0711761 0.14819 -0.220198 -0.181872 0.132757 0.259296 0.149743 -0.0817225 0.0712443 0.226012 0.430744 -0.189214 0.0557022 -0.136516 0.0724885 0.174863 -0.255032 0.117521 -0.200098 -0.0815391 0.231463 -0.344898 -0.137777 -0.159023 -0.0248828 0.0744176 0.00419011 -0.175239 0.128347 0.137921 -0.538222 -0.153755 -0.00316658 -0.0839341 -0.254443 -0.145658 -0.418239 -0.149939 -0.396078 0.137173 0.0240471 -0.319739 -0.326243 -0.480579 -0.015178 0.0271988 -0.229988 -0.448689 -0.0527508 0.0943191 0.178132 0.579941 -0.0342887 0.0377657 0.133764 0.31207 0.0100185 -0.32945 -0.0959937 -0.508136 -0.125347 -0.489069 -0.34264 -0.417666 -0.505955 -0.134043 -0.112424 0.0406347 -0.012653 -0.144571 0.0393225 -0.16077 -0.330123 -0.216814 -0.411314 -0.186537 -0.0489842 -0.0397439 -0.228948 0.032096 -0.00541098 -0.115499 -0.143422 -0.403309 -0.0472805 -0.00043759 -0.101983 0.318426 0.0333922 0.0616153 0.145284 -0.0586838 0.261688 -0.563043 -0.186911 0.0344341 -0.0125875 0.320019 -0.26961 0.200366 0.0184446 -0.376021 -0.22779 -0.262318 0.0953824 -0.145114
0.472143 0.114139 -0.0833886 0.0193673 -0.189437 0.301478 -0.130597 -0.0824704 0.157284 0.228654 -0.225187 -0.127071 -0.473636 -0.31287 0.0166905 -0.278803 0.202476 -0.156036 0.0410219 0.123852 -0.1017 -0.226615 -0.134747 0.0666702 0.0468064 0.339493 -0.00737777 0.14069 -0.00156359 -0.0018737 0.134002 0.0574763 0.453986 0.13076 -0.0822023 -0.0505511 0.222993 -0.185948 0.265583 0.22395 -0.152829 -0.0720551 0.107619 0.176821 0.0390127 0.249533 -0.0162978 0.103502 -0.00506627 0.109192 -0.086136 0.0377342 -0.176785 0.00931656 -0.136289 -0.157551 0.294816 -0.0191056 0.209329 0.203515 0.0185717 0.115926 -0.0831947 0.172157 0.187891 -0.255127 0.0737579 -0.120211 0.00627629 0.198755 0.0158931 -0.122777 -0.139138 -0.168371 -0.112678 0.0345658 -0.501634 0.0506363 -0.218774 -0.0171684 0.0417285 -0.284439 -0.115506 -0.298383 -0.00636135 0.200774 -0.0492584 -0.335352 0.0720995 0.151868 -0.0011054 -0.0605127 -0.18009 0.0790022 0.0495027 0.0840596 -0.219142 0.405958 -0.0101866 -0.169405 0.0355762 0.126114 0.0155085 0.131385 -0.0449927 -0.118768 -0.0131014 -0.159593 -0.0950841 0.126516 0.182332 -0.0201534 -0.0615132 0.2099 -0.0121124 0.0558106 0.241555 -0.266196 -0.0646472 -0.292762 -0.296562 0.0781851 -0.0584973 0.321471 -0.345909 0.134144 -0.0516823 0.00359628 0.0291791 -0.4744 -0.125507 -0.0948536 -0.367364 -0.299364 0.00966832 0.254606 -0.137163 -0.29478 0.237438 -0.0862932 0.0548934 -0.0914002 0.190774 -0.0260469 0.107243 -0.0548833 0.116954 0.116389 0.357767 -0.160543 -0.0709303 -0.240495 0.0873897 -0.10988 -0.120059 -0.00194378 0.194528 -0.220303 0.017913 -0.336801 0.0570242 -0.116698 0.00442662 -0.169039 -0.0163149 -0.0934964 0.196712 -0.0306617 0.230727 0.196897 0.0959893 -0.256108 -0.239278 0.156146 0.0374324 0.0443306 -0.248349 0.0617072 -0.0862927 -0.0196036 -0.043477 -0.0549244 0.0260997 -0.158095 0.323627 -0.121757 -0.156878 -0.0519101 -0.0282095 0.172266 -0.144854 -0.122515 -0.123131 0.171599 0.526885 0.104582 0.202336 -0.0326002 0.178677 0.2636 0.107197 0.0421489 -0.241823 0.0379388 0.205426 -0.355448 -0.148577 -0.198403 -0.0528736 0.0127805 0.0479997 -0.0333614 0.300558 0.270215 -0.257643 0.0383477 -0.128382 -0.0319205 -0.0406207 0.00502997 -0.135154 0.201515 -0.287955 0.104638 0.107697 0.0584643 0.266638 -0.411286 -0.227744 -0.0202258 -0.0831097 0.0327236 -0.150843 -0.534209 -0.327653 -0.395428 -0.0892043 -0.52965 0.149967 0.252643 0.11395 0.123163 -0.190191 -0.100674 -0.187343 0.0765034 0.309446 -0.0369062 0.323875 -0.0109885 -0.383092 0.209018 -0.0796171 0.23109 0.0261548 0.00674162 -0.055411 -0.247949 -0.430578 -0.163512 -0.179826 -0.472482 0.256298 0.0374196 0.158011 -0.0511953 0.0724984 -0.197899 -0.017 0.0851007 0.0615636 -0.261193 -0.121125 0.150376 0.0256375 -0.423963 -0.0157339 -0.228367 -0.0633151 -0.179567 0.188908 -0.0714437 0.148973 -0.152739 -0.0604237 -0.325781 -0.47596 -0.574291 -0.266915 -0.517901 -0.377404 -0.301241 -0.075849 -0.516691 0.176382 0.146593 0.319794 0.159391 0.0153024 -0.268073 0.0975674 -0.0312602 -0.423067 -0.307314 0.264065 -0.207863 -0.443109 0.0260266 -0.121188 -0.0653934 -0.570784 -0.401429 -0.287059 -0.713713 -0.450472 -0.353848 -0.187312 -0.158688 -0.0743638 -0.29957 -0.298794 -0.287747 -0.122336 -0.0905321 0.0245565 0.101799 -0.18721 -0.0859307 0.139127 0.127284 -0.120652 -0.000439161 -0.267028 -0.31546 -0.0829709 -0.513378 -0.20181 -0.0881859 -0.164958 -0.0401447 0.178822 0.0987271 0.210836 -0.143265 0.137877 0.0257929 0.207601 -0.100096 0.137749 -0.208099 -0.594393 -0.295391 -0.0829995 -0.0831251 0.103218 0.0836992 0.231008 0.0354791 -0.130957 -0.0667838 0.17181 -0.067489 0.0394162 0.0121508 -0.0533031 -0.0796321 -0.468065 -0.468406 -0.417084 -0.533355 -0.437734 -0.207028 -0.306002 -0.260277 -0.423613 -0.0811697 -0.539743 -0.0201222 0.2712 0.280402 0.289522 -0.101685 -0.269679 -0.0833671 -0.222535 -0.340023 -0.000252918 0.0320843 -0.0425817 -0.289541 -0.389853 -0.0372112 -0.156791 -0.355739 -0.309745 -0.639389 -0.31765 -0.233456 -0.287378 -0.121732 0.164651 -0.083718 -0.42414 0.0220437 -0.0414549 -0.131185 0.0991023 0.141366 0.103871 -0.0574868 0.189364 0.0431828 -0.208137 0.112622 0.00177611 0.202529 0.0401347 -0.110451 -0.116262 0.062085 -0.182431 0.259302 -0.0253095 -0.087996 -0.278997 -0.196506 -0.0322352 0.0801839 -0.0700796 -0.052621 0.331819 0.0649047 0.151643 -0.164659 0.222121 0.148681 0.229833 -0.270464 -0.229487 -0.0742667 -0.164533 0.0501823 0.17548 -0.000739264 0.0908948 -0.10334 -0.0989183 -0.136237 -0.0223455 0.0664399 -0.00149486 -0.507356 -0.147837 -0.203734 -0.0540401 -0.237363 -0.298994 0.0375246 -0.384101 0.242686 0.105215 0.177277 0.213779 0.413599 0.249722 0.0718932 -0.332795 -0.0725887 -0.10692 -0.0933095 -0.0522172 0.212732 0.0182066 -0.35216 0.0222051 -0.0737234 0.108683 -0.368527 -0.0824833 -0.329781 -0.437465 -0.27458 -0.0443965 0.132595 -0.0481524 -0.250625 0.06765 -0.487135 0.0376639 0.40687 -0.179471 0.00273256 0.105132 0.342926 0.194529 0.35888 0.135023 -0.153696 -0.362881 0.026439 0.198902 -0.00346454 0.103086 -0.0819009 0.137147 0.275512 -0.234315 0.139969 -0.010327 0.240653 -0.20454 0.0708857 0.016904 0.165045 0.0951724 -0.0769452 -0.0739895 -0.190493 0.0467485 0.0917467 -0.0243065 0.0282759 -0.165461 -0.124415 0.0967028 0.0329668 0.411006 -0.0891106 0.0885678 -0.123427 0.153382 0.17434 0.157158 -0.0404289 0.163335 0.11012 0.00344251 0.080627 -0.0224948 -0.186955 -0.218184 -0.0625436 0.162993 -0.214945 -0.0146016 0.0751524 -0.0953661 0.0711749 -0.213812 -0.0348925 0.0359027 -0.155939 -0.0280681 0.235477 -0.158753 0.153642 0.0638318 0.356953 0.0658035 0.204883 -0.044964 0.264927 0.180962 0.297356 0.274361 -0.0816148 0.00903132 -0.283935 -0.0974501 -0.110562 -0.181278 -0.0118676 0.0496291 -0.196975 -0.346408 0.272783 -0.0692169 -0.0636571 0.0273296 -0.0784507 0.249193 0.051412 0.110329 0.110704 0.175835 0.297678 0.42818 0.230243 0.447019 0.127853 0.195538 -0.193199 -0.156117 -0.196435 0.0400104 -0.195468 -0.0991135 -0.229636 0.242302 -0.1819 0.12066 0.00564474 0.0313905 -0.00871176 0.229704 -0.0680679 0.145474 -0.276918 -0.158657 -0.102782 0.202033 -0.18806 -0.269202 -0.209243 0.0521047 -0.164089 0.360081 -0.144849 -0.265634 -0.0274957 0.17362 0.251501 0.295119 0.255126 0.120081 -0.081319 0.0314318 0.2163 -0.16224 -0.190307 0.485087 0.0465271 0.072066 0.161482 0.289237 0.330839 -0.0280304 0.165815 0.381667 0.179491 0.159613 0.58465 0.0680653 0.290201 0.386644 0.0742876 0.20111 0.249963 0.10862 0.116166 0.34705 0.192966 0.120371 0.155478 0.307964 -0.289056 0.0378491 -0.0365051 0.118806 0.133599 0.232776 0.00616199 0.235114 0.252611 0.257161 0.0578935 0.123826 0.343304 0.17436 -0.181942 0.277248 0.0707618 0.162728 0.0241529 0.12826 0.125681 0.0724863 0.221128 -0.296932 0.076109 -0.455148 -0.111959 0.0406067 0.0334392 -0.33342 -0.0138005 -0.125811 -0.0654492 -0.064674 -0.0895791 0.0113913 -0.0128736 -0.0803021 0.176866 0.033941 0.0323841 0.0726703 0.0148753 0.0916879 0.295652 -0.193776 -0.0511377 0.0332235 0.181287 0.303648 0.291418 0.00269896 0.490836 -0.0611216 0.270903 -0.274798 0.219237 -0.136955 0.103488 0.0434191 -0.0802676 0.302163 -0.119244 0.537418 0.268886 -0.0293524 0.102991 0.158689 0.163178 -0.00435683 0.181283 0.357384 -0.096594 0.552628 -0.00251811 0.377618 0.0489758 0.126033 0.0329111 0.251979 0.43379 -0.223591 0.414961 0.320343 0.129455 0.31624 -0.354592 0.10953 0.148631 -0.292515 -0.468386 0.0967777 0.137016 0.193503 0.0383635 0.328237 0.208863 0.124546 0.30622 0.199068 0.205729 -0.161696 0.0232446 0.430514 0.165676 -0.0238938 0.132587 0.160534 -0.104416 -0.145756 -0.0798237 0.0928862 -0.178086 0.0933671 -0.17568 0.0403197 0.147653 -0.348539 -0.217842 0.293287 -0.200961 -0.0251533 0.0281506 -0.100528 0.00264963 -0.0509329 0.0579885 -0.0805059 0.271429 -0.0981374
0.619494 0.0668336 -0.0121237 0.123853 -0.0857134 0.0159644 0.120005 -0.297572 -0.034547 -0.126257 0.0497042 0.0855643 0.343674 0.219556 0.161097 0.253895 0.0953926 -0.164992 0.0592103 0.154506 -0.0725869 -0.215996 -0.21697 0.321101 0.177564 0.0501947 0.128109 0.0119012 -0.145886 -0.186384 -0.0400055 -0.290227 -0.156712 -0.195219 0.0614903 -0.361569 -0.4951 -0.663449 -0.567349 0.139829 -0.0972431 -0.119196 -0.0263143 0.155972 -0.0460436 -0.0443976 0.191511 0.118269 -0.0482526 -0.172078 -0.155072 -0.101073 -0.135418 -0.138336 -0.342562 0.153739 0.0323693 0.0370403 -0.367117 -0.105434 -0.297515 -0.171041 -0.320005 -0.414786 0.0347023 -0.173096 -0.277063 -0.215679 -0.704143 -0.449582 -0.530284 -0.106474 -0.233574 -0.0575613 -0.384529 -0.133888 -0.260345 -0.0498608 -0.239343 -0.318786 0.00239002 -0.113309 0.00707593 -0.280278 -0.328627 0.032307 -0.24694 -0.0343015 0.263703 0.138616 0.118509 0.0848513 -0.0726422 0.0550677 -0.47722 -0.0656402 -0.204051 -0.147393 0.354157 -0.413608 0.230084 0.0385312 -0.116724 0.0822061 0.307096 0.084092 -0.0801686 0.322805 0.150246 0.0408663 0.157187 0.264289 0.140964 -0.339091 0.234302 -0.337945 0.108377 -0.368876 -0.159963 0.0368779 -0.487027 -0.00545224 -0.1695 -0.650055 -0.124211 -0.239237 -0.419827 -0.670289 -0.182379 -0.338355 -0.0467267 -0.0342897 -0.068997 -0.299897 0.130238 -0.0760505 -0.237818 -0.144232 -0.100436 -0.0488362 0.018396 0.169205 0.0812524 -0.420031 -0.0920219 -0.51265 -0.0485085 0.105329 -0.0568246 -0.107217 -0.271107 0.253618 -0.191659 -0.279107 -0.214566 -0.321178 -0.173337 -0.250415 -0.251413 -0.263281 -0.27694 -0.142697 0.0615422 -0.241106 -0.321292 -0.148639 -0.404699 -0.333545 -0.282893 -0.14441 -0.00149367 -0.296762 0.236376 0.229224 -0.0978669 0.0243374 0.0716765 -0.133082 -0.16602 -0.140261 -0.253305 0.154856 0.0679918 0.12308 0.00482076 -0.401215 -0.175649 -0.127226 0.291972 0.0439429 -0.120116 -0.178705 0.172794 0.0671785 -0.209341 -0.122683 0.104364 0.000961164 -0.0940371 0.208235 0.346323 0.28517 0.453389 0.0665217 0.354302 0.00572779 0.23402 0.347979 0.325737 0.616317 0.223087 0.128148 -0.17253 -0.112348 -0.135038 -0.275993 -0.0493161 -0.184924 -0.0161317 -0.29128 0.351653 -0.0505033 -0.137706 -0.384158 -0.314719 0.128196 0.110503 0.138069 0.254011 0.225585 0.324242 0.28077 0.462614 0.478199 0.339278 0.183571 0.506085 0.150736 0.0455951 0.404267 0.273419 -0.235062 0.102594 -0.0504481 -0.102041 0.0687906 0.124206 0.120977 -0.267903 -0.123605 0.13763 0.149101 0.217213 -0.166206 0.00706467 0.257257 0.162863 -0.0751038 -0.172605 0.278019 -0.00681825 0.0419433 0.368746 0.0304752 0.109427 -0.0870089 0.0542873 0.0474157 0.222496 0.153829 0.271913 -0.179708 -0.167105 0.182598 -0.0254515 0.0610508 0.181554 0.0865687 -0.399975 -0.101493 -0.239486 0.0332126 0.189799 0.49788 0.104882 0.533367 0.168698 0.371638 0.13278 0.314032 0.668851 0.477213 0.30669 0.369396 0.263522 0.497092 0.301691 0.067401 0.26574 0.562613 0.38614 0.0552924 0.0255997 -0.037401 0.0611215 -0.0843858 -0.0942076 0.192453 0.0493894 0.0564491 0.213219 0.379316 0.200635 0.199786 0.417978 0.381706 0.456591 0.0917419 0.132087 0.257151 0.236055 0.297821 0.432406 0.0870981 0.309921 -0.0546199 0.212212 0.085243 -0.308772 0.0225645 0.0609793 -0.00174776 0.0601274 0.375294 0.178416 -0.16052 0.0610226 -0.291314 0.109405 -0.00887327 0.200414 0.113621 0.275262 0.0310751 -0.228764 -0.0787842 -0.0520174 -0.256882 -0.121969 -0.0129551 -0.0451202 0.329393 -0.296446 0.0933522 -0.053104 0.00653959 -0.0618388 -0.11862 -0.0778923 -0.219908 -0.163026 -0.47759 0.0565725 0.218569 0.0415187 0.213231 0.21264 0.404545 0.0819411 0.0311588 0.0837638 0.14091 0.251516 0.0354959 0.22382 0.038835 -0.0319489 0.226233 0.180308 -0.142319 0.248824 0.134548 -0.168625 0.147171 -0.010325 0.0445251 0.312147 -0.639127 -0.251595 0.0924314 0.0162949 -0.271371 0.143983 -0.146112 0.296704 -0.190032 0.0823298 -0.0810914 0.0121964 0.195572 0.107857 -0.230502 0.176026 -0.18879 0.0850595 -0.246194 0.0689007 0.103727 0.26404 0.348444 0.219723 0.449073 -0.014319 -0.0716436 0.142065 0.0747126 0.00497346 -0.0998621 -0.100309 -0.134185 0.00396252 -0.184859 0.335993 -0.0474636 -0.103294 -0.137755 0.189351 -0.0999468 0.403088 0.224724 -0.016436 0.356763 0.0681778 0.364013 0.276729 0.403445 0.396222 0.243438 0.174939 -0.00921567 0.151791 -0.291516 -0.151486 0.139303 0.147005 0.218818 0.0439178 -0.119294 0.00113554 0.0139033 0.265763 0.125315 0.379595 0.0396115 0.0666237 -0.0291078 0.0433269 0.294365 0.131327 0.0589691 0.13175 0.245521 0.200042 -0.034815 0.13053 -0.125961 0.407185 0.174216 -0.103747 -0.124146 0.17657 -0.034891 -0.12751 0.249856 -0.34692 -0.280983 0.257566 -0.219848 0.0322742 -0.141777 -0.230642 0.296022 0.116024 0.0331911 0.0967477 0.0532187 -0.239067 0.0261965 -0.0613971 0.0853188 0.0948613 0.130753 0.0493654 0.108521 0.19467 0.148109 -0.0817434 0.231411 -0.208623 0.186217 -0.237502 -0.0920611 -0.185001 -0.269667 0.0151306 -0.067366 0.131905 0.188448 -0.40002 0.180157 0.260802 0.448672 -0.0981368 -0.432202 0.154733 0.0115326 0.0472445 -0.0356195 0.302293 -0.23384 0.0561837 0.425239 0.123167 -0.17528 -0.0263409 -0.211618 -0.1243 -0.0037288 0.167565 -0.0633245 -0.0859106 0.10301 0.0626979 0.00447469 0.475756 -0.0457096 0.179173 0.185068 0.467535 0.645205 0.00568825 0.365968 0.351428 0.378669 0.693793 -0.0319698 0.497478 0.423108 0.456021 0.253205 0.0350468 0.481891 0.127254 0.08791 -0.27113 -0.244713 -0.124412 -0.122537 -0.110514 -0.268497 -0.00752774 -0.184011 0.389334 -0.0202199 -0.0914448 0.420167 0.212239 0.123475 0.634615 0.680261 0.352489 0.423655 0.302277 0.239739 0.450825 0.317532 0.127038 0.242902 -0.268771 -0.0101066 0.0101684 -0.330679 0.0372435 0.210925 0.109774 -0.251807 0.372498 0.0632513 -0.252694 0.354995 0.0503536 0.157319 -0.0679616 0.0603813 -0.202785 -0.132687 -0.0704186 -0.115437 -0.0485055 0.441401 0.363873 0.215154 -0.220251 -0.0975002 0.388367 -0.395434 0.218667 0.14984 0.161098 -0.202137 0.140271 -0.497384 -0.00914018 0.105511 -0.191541 0.0295478 0.339603 0.00625538 0.358177 0.133591 -0.128688 0.0746683 -0.219364 0.1716 -0.107965 0.095011 -0.480693 -0.0689923 -0.196532 -0.0729197 -0.118309 -0.442749 -0.0210563 -0.0195484 -0.149724 0.107087 -0.301561 -0.145957 -0.220874 0.00724686 -0.247366 -0.158548 -0.112047 -0.529794 -0.230439 -0.222489 -0.00541318 -0.00577336 0.292452 0.288137 0.214699 0.0963337 0.0128438 -0.250451 -0.122803 -0.0379426 -0.0625588 -0.27395 -0.013337 0.107479 0.157405 -0.206881 -0.109038 -0.0969968 -0.130404 0.0337026 0.061411 -0.0324231 0.00570717 -0.286074 0.0654141 -0.0251918 -0.0213347 -0.0685633 -0.333567 -0.0447959 -0.112569 0.0805751 0.234879 0.039093 0.122216 0.260936 -0.10365 -0.00865868 0.0498625 -0.159107 -0.00120396 -0.0373869 0.0820425 0.255966 -0.166164 -0.0192131 0.208127 0.0129259 0.0479803 -0.116851 -0.300832 -0.132267 0.0576387 0.0689833 0.3595 -0.13053 0.0708478 -0.306714 -0.146593 -0.132137 -0.320328 -0.215474 -0.103153 -0.131747 -0.0857387 -0.158684 0.0433528 0.059237 -0.105839 0.258843 -0.0454129 -0.409968 -0.0636956 -0.356954 -0.110456 -0.0519871 -0.0659932 -0.184727 0.160008 -0.196637 -0.160808 -0.0518966 -0.0812124 0.00689312 -0.131828 -0.120069 0.185775 0.0653914 -0.157346 -0.421779 -0.156894 -0.185125 -0.319424 -0.448451 -0.229367 -0.23242 -0.106256 -0.369539 -0.115109 0.345758 0.0754576 0.190827 0.363149 -0.190222 -0.0575849 0.0275074 0.015514 0.108681 0.0545665 0.0489804 -0.237069 0.0508008 0.202906 0.04203 0.342793 -0.0772144 -0.0616193 -0.033586 -0.291148 0.110961 0.288822 -0.130169 0.0603101 0.298913 -0.210399 -0.13004 -0.0494242 0.0120736 -0.213412 -0.287355 0.192496 -0.180991 0.0469344 0.101449 -0.233028 0.0446534 0.0277918 -0.0692082 -0.110609
-0.0268318 -0.332749 0.154929 -0.0961832 -0.494504 -0.20704 -0.105347 -0.198864 -0.0356082 0.066426 -0.241558 -0.0933061 -0.116994 -0.0862216 -0.0569558 -0.276528 -0.207276 0.14889 0.26747 0.273357 -0.0461445 0.435991 0.0663046 -0.15421 0.111441 -0.15897 0.210434 -0.0930746 0.200061 0.0872712 -0.142617 -0.0541886 -0.0353991 -0.0442855 -0.044517 -0.177333 0.0107756 0.0434074 -0.220091 -0.286408 0.0620674 -0.326023 -0.129402 -0.119596 -0.531276 -0.55306 -0.141538 -0.553006 -0.154332 -0.200746 -0.20511 -0.0192019 0.048343 0.164507 -0.0816133 0.43553 0.157043 -0.139821 0.0536185 0.267199 -0.394146 0.174956 0.314271 -0.0842913 0.0194607 -0.102178 0.112803 -0.106697 -0.0515033 0.0792572 -0.321441 -0.31084 -0.508992 -0.0913491 -0.286192 -0.0273825 -0.167437 -0.108018 -0.132311 0.0593037 0.0429547 -0.064047 0.191172 -0.13443 -0.234854 0.0564995 -0.147866 0.590158 0.0324455 0.0202439 -0.238231 0.0275919 0.224044 -0.249104 -0.0906559 -0.152162 -0.572464 -0.339992 0.0065935 0.0758956 0.133942 0.074185 0.374797 0.272442 0.0474867 0.0643539 -0.160825 0.172701 0.134074 -0.160006 0.0563368 0.0124573 0.0498594 -0.0525664 0.205365 0.418634 0.0758306 0.136736 0.196457 -0.0520413 0.132232 0.131705 -0.12771 0.171465 -0.311235 -0.160399 -0.30246 -0.117183 -0.333749 -0.299577 -0.18753 -0.348152 -0.170386 0.0897021 -0.00638525 0.184055 -0.104721 -0.209298 -0.359563 0.183079 0.0476466 0.0964477 0.161223 0.160537 0.230661 0.222804 -0.219476 0.331389 -0.0639093 -0.13482 0.0644957 0.0817916 -0.00903559 0.208036 -0.276832 -0.512141 -0.237627 -0.623484 -0.447007 -0.027917 -0.506167 0.0988235 0.0606465 -0.286733 0.0326211 -0.153822 -0.281774 0.0870667 -0.0614968 -0.209841 0.124051 -0.183282 0.00627398 0.0239387 -0.0587737 -0.0581513 0.170931 -0.0277014 -0.0270195 0.0966513 -0.225486 -0.124553 -0.0207317 0.00156918 -0.0809264 -0.0857633 0.0830348 -0.169054 0.0553869 -0.11239 0.246366 -0.281741 0.0695089 -0.232395 -0.0205299 0.199354 -0.0992129 -0.047986 -0.0231021 0.226497 0.349696 0.227696 -0.11984 -0.0319518 0.141019 0.268097 0.108925 0.338646 -0.148427 -0.176107 -0.0071035 -0.566991 -0.379127 -0.645039 -0.358891 -0.312857 -0.585995 -0.315915 -0.186266 -0.283511 0.0694695 0.0241936 -0.146562 -0.0827413 -0.149379 0.151099 0.196727 -0.0684222 -0.172561 0.361096 0.276639 0.0235651 0.328175 0.149013 0.0634362 0.44005 0.205429 0.487963 0.228154 0.0540917 -0.457004 -0.588889 -0.551808 -0.605401 -0.183135 -0.394986 -0.250398 -0.557416 -0.336731 -0.315815 -0.398797 -0.474015 -0.281986 -0.334372 0.127955 -0.09871 -0.163351 -0.0661591 0.199404 0.46234 -0.0157978 0.144267 -0.0165929 0.0965753 -0.256234 0.0642727 0.0145705 0.147308 -0.223571 -0.138895 -0.029319 -0.156155 -0.284237 -0.19751 -0.210804 0.0573203 -0.0426954 -0.0442558 -0.208935 -0.0166828 -0.444749 -0.182166 -0.0129635 0.381673 0.0520817 0.117542 0.392831 0.171872 0.288576 -0.0801158 0.365223 0.307857 0.350439 0.484552 0.0267808 0.101781 -0.291616 -0.111672 -0.137649 -0.424827 -0.31852 -0.463424 -0.426391 -0.475511 -0.581666 0.000590495 -0.524378 -0.534101 -0.289371 0.580984 0.0264284 0.14159 -0.0463301 0.00865556 0.192756 0.149945 -0.00156868 0.259548 0.0831054 0.137996 0.13514 0.145857 0.196946 0.113875 0.0350328 0.0935479 -0.374132 -0.0293458 -0.304041 -0.0040343 -0.265437 -0.190861 -0.47099 -0.292833 -0.0604673 -0.349093 -0.427279 -0.198931 -0.0278106 -0.247057 -0.306699 -0.321963 0.219991 0.0433026 -0.176314 -0.303813 -0.142358 -0.0443419 0.0328582 0.117787 0.370409 0.0557496 -0.0856875 -0.00791366 0.332241 0.0942344 -0.0975928 0.246566 -0.151559 0.032157 -0.15617 0.34774 0.240028 0.0299579 0.160659 -0.0510331 -0.0599425 -0.211103 0.21572 -0.280963 0.22634 0.119264 0.0265357 0.29007 0.18692 0.0385757 0.114579 0.0439024 0.376624 -0.0501174 0.00112386 -0.0364085 0.310151 -0.215601 -0.268782 0.0240736 -0.0412728 -0.327313 -0.0484102 -0.00606232 -0.319192 -0.443602 -0.122947 0.328329 0.01171 0.21447 0.211905 0.0348427 -0.0367319 -0.0755428 -0.421062 -0.235972 0.135795 0.359408 0.0651499 0.548997 0.150634 0.336834 -0.0354432 0.0583033 0.242975 -0.08431 -0.204115 -0.082501 -0.0171985 -0.0636793 -0.186546 -0.0343775 -0.346837 -0.0781062 -0.587648 -0.0119574 0.0293608 -0.150281 0.00411283 0.0954127 -0.157476 -0.0276115 0.0268446 0.0559143 -0.0811826 -0.077949 0.130965 -0.0120623 0.0581379 -0.198036 -0.200821 -0.10108 -0.25585 -0.0888763 -0.0623033 0.187226 -0.234719 0.109366 -0.0443234 -0.14182 0.180517 0.14863 0.0559161 -0.197453 -0.24731 -0.104678 -0.157913 0.35196 -0.427017 -0.164127 0.132822 0.00289559 0.0722393 -0.00894838 0.139653 0.329934 0.270064 0.116868 0.311217 0.248325 0.301277 0.0390013 -0.0909485 -0.102642 0.0827705 -0.173305 -0.190969 -0.165408 -0.295414 -0.0357127 -0.169559 -0.334286 -0.143551 -0.249997 -0.217341 -0.0637935 0.0515725 -0.0589999 -0.137413 0.171629 0.085964 0.251789 0.104683 0.141563 0.198648 0.288447 0.108016 -0.0661852 0.0605197 -0.102735 0.136059 -0.00822227 -0.0394994 0.338301 -0.0547821 0.0930474 -0.192502 0.0667588 -0.242184 -0.033235 -0.251102 0.3225 0.159988 0.3762 -0.0187701 0.190621 -0.212711 0.0760992 -0.0768564 0.201045 -0.236656 -0.562107 -0.00688063 -0.162796 0.101572 -0.00926863 0.164542 -0.0996186 -0.221069 -0.552808 -0.107203 -0.222179 0.100357 -0.171124 -0.0727204 -0.34239 0.0164858 -0.208599 -0.0705684 -0.0373186 0.0733916 0.247547 -0.285877 0.145987 -0.0980386 0.246218 0.149482 0.194764 0.369429 0.601869 0.324889 0.362525 0.0108043 -0.0138946 0.298151 -0.192553 -0.100364 0.266065 0.168278 -0.047483 0.0421318 0.082815 -0.21461 0.451484 -0.216613 0.457167 0.0657125 0.29852 0.102492 0.281593 -0.142345 0.105035 -0.197331 0.0406876 0.122065 0.132489 0.0910308 0.310696 0.138539 0.280452 0.174001 0.323496 0.294597 0.231235 0.0883655 -0.0213563 -0.105278 0.173643 -0.280257 -0.301743 0.119422 -0.0574377 0.0133948 0.177549 0.202949 0.0598827 -0.00145616 -0.000198815 0.310873 -0.0359303 -0.161724 0.145766 0.250129 0.158287 -0.0736094 -0.173604 0.350976 0.191316 0.00794088 0.250992 0.0465307 -0.0475834 -0.145724 0.105052 0.0845385 -0.251202 0.107792 0.248354 0.42433 0.276014 -0.0956158 -0.0803082 0.229347 0.601124 0.129112 0.220831 0.135565 0.138545 0.097767 0.0105641 0.245414 0.340634 0.136275 0.360635 0.108659 0.286866 0.106221 0.0783128 0.131658 0.169526 0.225304 0.34191 0.309145 0.12936 0.110628 0.320433 -0.0720653 -0.0669817 0.0323344 0.238374 0.0985985 0.467364 0.108457 0.222311 0.256041 0.120293 0.139649 0.206103 -0.020072 -0.00846968 -0.246745 -0.10431 0.145519 0.250308 -0.0378537 0.402835 -0.055718 0.0178148 0.113613 0.384066 -0.0452279 0.137661 -0.153757 0.0728578 0.182751 -0.158847 -0.0526585 0.123246 -0.305852 -0.0500161 0.00881773 0.139469 0.0615108 -0.176283 0.289325 -0.056012 -0.0302941 0.187773 0.109705 0.256592 0.188196 0.231705 0.146834 0.0276706 0.392901 -0.274521 0.0855984 -0.228298 0.107869 0.132455 0.0125466 0.166659 -0.0577902 0.276173 0.121615 0.387635 -0.128683 0.170541 0.371471 0.0757599 0.0863765 0.0311596 -0.165248 -0.241682 -0.072457 0.0863325 0.102139 -0.101358 -0.104033 0.186182 0.061884 0.444111 0.443518 0.0765483 0.00792425 0.214608 0.123043 0.35816 0.456678 0.236415 0.124352 0.416348 0.125825 0.187268 -0.119764 0.169812 0.253132 0.133016 0.131938 0.114606 0.0342917 0.0430973 0.130344 -0.244679 0.0760865 0.276618 0.416917 0.375911 0.0780786 0.0891264 -0.0176699 0.367402 0.282893 0.222098 0.164359 -0.0261433 0.226182 0.0754071 0.0790499 0.250937 -0.103198 -0.0564617 -0.02276 0.135626 0.159135 -0.261136 -0.345152 -0.109985 -0.00659692 -0.40041 -0.0549666 0.0577208 -0.0629246 -0.235656 0.0712794 -0.225481 -0.0837206 0.134808 -0.0637373 0.179184 0.323203 -0.214418 -0.364903 -0.247631 0.297905 -0.0835152 0.273932 0.273907 -0.270365
-0.0137349 0.0776618 0.24314 -0.203283 0.127771 -0.0846616 -0.170221 0.043935 -0.0429553 0.00910512 0.190642 0.0287532 -0.043624 0.0993372 0.249897 -0.00238945 0.0185558 0.0193227 0.20137 0.264908 -0.295628 0.32082 -0.309155 0.0148956 -0.144378 -0.21095 0.0247857 0.04919 -0.108611 -0.062743 -0.0285596 -0.0369797 0.005055 -0.217971 -0.184998 -0.0214322 -0.29112 -0.308115 -0.0549841 0.086704 -0.298027 -0.0987765 0.0207646 -0.210555 -0.22341 0.199648 -0.0021997 -0.0601498 -0.0619383 0.0441306 0.222194 -0.152411 0.105118 0.246768 -0.199038 0.0154782 -0.0852997 0.0498209 0.0630856 -0.0856318 -0.00533937 -0.14601 -0.242767 -0.146438 -0.223639 -0.65198 -0.360397 -0.0863356 -0.140339 -0.253142 -0.375274 0.0892456 -0.331147 -0.208056 0.0604562 0.055579 -0.13407 -0.121632 -0.0381353 -0.00462765 -0.0433685 -0.405571 -0.202803 -0.00869047 -0.232178 0.322725 0.168412 -0.196498 0.0282765 -0.274562 -0.321565 0.225277 -0.160425 -0.021413 -0.105712 -0.14459 0.02805 0.0579544 -0.135678 0.101562 0.0941999 0.0474864 0.101606 -0.019064 -0.238275 0.182376 0.127367 -0.231681 -0.177665 -0.012765 -0.221362 -0.0428615 -0.0258023 -0.216657 -0.43389 0.293644 -0.206861 -0.457528 -0.0291536 -0.415637 -0.522387 0.246784 0.0280992 0.0459087 0.0344903 -0.0354388 -0.134892 -0.0908515 0.10854 0.101251 0.0575081 -0.25432 -0.435573 -0.0806304 -0.169622 -0.205185 -0.3163 0.0510259 -0.10422 -0.216371 -0.337435 -0.0273468 -0.262973 -0.219315 -0.120546 -0.0916668 -0.0202878 -0.0613911 -0.66034 -0.669912 0.190468 -0.0907826 -0.118039 0.0873611 -0.0957374 0.282062 0.219107 0.133265 -0.125617 0.0299817 -0.195041 -0.0179739 -0.110727 -0.287019 -0.398501 -0.4055 -0.360212 0.0295242 -0.139375 0.119739 0.262101 0.017176 -0.251867 0.282712 0.117818 -0.195216 0.0510935 -0.1302 0.230416 0.0742254 0.113098 -0.0553945 -0.125497 -0.357425 -0.177998 0.0951763 0.0377269 -0.334981 -0.165008 0.0756606 -0.28467 -0.134857 0.0693146 0.034957 -0.14233 0.0681317 0.0949924 0.163236 -0.199942 0.114129 0.0812584 -0.228836 -0.370181 -0.308518 -0.192204 -0.144001 -0.134851 -0.0182448 -0.162412 0.0577665 0.0592637 -0.0788224 0.180708 -0.00995731 0.242536 -0.425747 -0.312075 -0.11279 -0.14125 -0.154576 -0.509028 0.0340668 0.162645 -0.0459295 -0.362188 -0.0384829 0.103695 0.239078 -0.0644565 -0.224002 -0.161415 -0.331948 -0.173445 -0.0182976 -0.160747 -0.159666 0.0201353 0.202392 0.241889 0.036691 0.353799 -0.170049 0.0651106 -0.106101 -0.24626 -0.487054 -0.351998 -0.17839 0.00944652 0.212852 0.337582 -0.492582 -0.131408 -0.0919457 -0.111776 0.318412 -0.00024366 0.131716 -0.0404967 -0.151359 -0.0137743 0.0660897 -0.0697272 0.297078 -0.258543 -0.301822 0.0654879 0.216363 0.00214839 -0.0728486 -0.174429 0.00420439 0.0571098 -0.205617 0.208624 -0.340627 -0.190488 -0.0558496 0.129181 0.00358171 0.000109001 -0.249182 -0.0117532 -0.0348146 0.0408784 -0.0140138 -0.354518 0.0820157 -0.159509 -0.031622 -0.108983 0.272554 0.264531 0.0775697 -0.07548 0.240901 -0.0368805 0.257703 0.023394 -0.468772 -0.0819866 0.0355122 -0.357191 -0.436321 -0.164821 -0.525412 0.107163 -0.0567451 0.132036 -0.0423994 0.0976393 -0.0298915 -0.0195497 -0.0558607 -0.229753 -0.0721944 0.113099 -0.269865 -0.123188 0.147052 0.0100238 0.108836 0.0478541 0.307753 0.249275 0.123813 0.0886567 -0.540394 -0.407844 0.139019 0.0117228 -0.330909 -0.14638 -0.322117 0.0248398 -0.154368 -0.0934655 -0.0363239 0.0744066 0.205818 -0.276564 -0.244238 0.490903 0.420126 -0.0173931 -0.118808 -0.0988762 0.225334 -0.157671 -0.168757 0.0431577 0.0629638 0.178481 0.0449628 -0.181864 0.106819 0.220697 0.190693 0.0792149 -0.223706 -0.521373 0.2434 -0.0906696 0.3534 0.229447 -0.0152768 -0.0242908 0.196824 -0.0919993 -0.0234197 0.000601028 -0.0692744 0.291762 0.00593177 -0.00023034 -0.0406649 0.0876973 0.0460658 -0.11895 0.166765 0.0476603 -0.0377934 -0.0208331 -0.275217 -0.440588 -0.342657 0.165218 -0.289985 0.0584075 -0.17844 0.316841 -0.149428 0.140944 -0.120009 0.0748131 0.137124 0.0871561 -0.357037 -0.270925 0.209499 -0.0330746 0.136055 0.0178456 -0.079355 0.150456 0.120094 0.195074 -0.0181056 0.000512419 -0.495121 -0.16196 0.0630394 -0.155166 -0.203532 -0.222308 -0.360218 -0.316892 0.0967339 -0.0650389 -0.355348 0.0200881 -0.193559 0.137961 -0.0515034 -0.0627476 -0.0852647 -0.203492 -0.0243217 -0.321873 0.00150454 0.150776 -0.086986 -0.0487422 -0.00559941 -0.0170397 0.127431 0.0748816 0.0981415 0.22218 0.0805464 0.0897581 0.166496 0.165421 0.135981 -0.108905 0.141799 -0.132605 -0.233519 -0.276634 -0.0619035 0.155614 -0.161932 -0.177219 -0.142505 0.0403974 0.0171902 -0.304142 0.22313 0.203463 -0.18005 0.046211 0.270149 -0.0464444 -0.320009 0.124071 -0.0419912 -0.278886 -0.152539 -0.209355 -0.227952 -0.0162229 -0.0161876 -0.213643 0.0861411 -0.0815989 -0.147889 -0.0741364 0.0652708 -0.113689 -0.0359727 0.074123 -0.203518 -0.110284 -0.115759 0.38744 0.323635 -0.13793 -0.0450131 -0.171484 0.0253814 -0.140054 -0.277963 -0.0510445 -0.350317 -0.232237 -0.0777711 -0.251957 -0.347117 0.246183 -0.08663 -0.131412 -0.273024 0.221787 -0.190232 -0.102062 0.0238522 0.0196887 0.1533 -0.0851344 0.079596 0.0899871 0.0028179 -0.0522776 -0.271753 0.0852276 0.262324 0.062059 -0.0698847 -0.0858872 0.123576 0.0893329 0.110815 -0.0481323 -0.0127331 0.127389 0.0638376 0.188242 0.0258232 0.162682 0.135135 0.06448 0.0942389 0.0886076 -0.143702 0.104349 -0.194461 -0.00927004 0.130611 -0.1529 0.0871357 0.0960296 0.0511123 -0.13975 -0.121687 -0.111072 -0.048496 0.361856 0.136036 0.265836 0.142853 0.223467 0.0946374 0.0788924 -0.275043 0.23074 0.0262778 0.201316 -0.16164 -0.177944 0.143746 -0.0823878 0.0455268 -0.025324 -0.014187 -0.0852356 -0.132177 -0.133703 -0.0570041 0.140232 0.0505472 0.28925 -0.120522 0.185129 0.0788693 0.0710985 0.0837139 -0.0167643 0.0640722 -0.0344394 0.143323 0.194262 -0.0913282 -0.168148 -0.0830833 -0.172917 0.0155812 0.0557591 -0.22041 -0.577905 -0.018798 -0.113948 0.109204 0.117824 -0.118254 0.115594 -0.155493 -0.0228968 -0.167409 0.133607 0.104319 0.168886 -0.224788 0.0528265 -0.183623 -0.0590686 -0.0502472 0.0820623 0.044147 -0.125696 0.310853 -0.339829 0.0953742 0.0465222 0.438248 -0.229734 0.049248 -0.21349 -0.400088 -0.615735 -0.166268 -0.083014 -0.252748 0.144419 0.311605 -0.173479 -0.166222 -0.101767 0.11841 -0.0780396 -0.11359 0.302268 0.0238104 0.104121 0.305112 -0.00554305 -0.0583071 0.129853 -0.112221 -0.104854 0.0134851 -0.200429 0.0247855 0.155516 0.0520194 0.046322 0.187167 -0.0658934 -0.205381 -0.254515 -0.536637 -0.0225378 -0.225215 -0.0728365 -0.280919 -0.0206039 0.301328 -0.00466682 0.158613 0.165418 0.209107 -0.0472085 0.0749342 0.0796508 0.162404 -0.106006 0.0706695 0.197847 -0.298868 -0.12556 -0.142787 -0.321911 0.186072 -0.15988 -0.0850105 0.123842 0.11963 0.283096 -0.209194 -0.0400769 -0.203555 -0.0472848 0.260104 0.0548089 0.0266276 -0.389373 -0.0325241 0.0256987 -0.141417 -0.131318 -0.413027 -0.026148 -0.0590365 -0.408528 -0.104351 -0.0223541 0.0842597 0.227561 0.028215 -0.182732 -0.276432 0.307531 -0.213106 -0.261558 -0.262058 -0.0876681 0.149784 0.0273393 0.232597 0.29673 0.228704 0.123315 0.2924 0.197816 -0.121489 -0.00778722 0.156615 0.0680112 0.0163845 0.0230436 0.0966184 0.385999 -0.0641582 0.246006 -0.0120979 -0.400312 -0.0944992 -0.0145409 0.23277 -0.187301 -0.103319 -0.257768 0.121703 -0.0763086 -0.00319079 -0.271695 -0.116298 0.0901577 0.192764 -0.0867249 -0.20964 -0.093673 -0.255286 -0.198141 0.135766 0.244506 0.261721 0.163141 0.122462 0.0883362 0.0816225 0.495118 0.0227298 -0.181917 0.250728 0.0426526 -0.204842 -0.106635 -0.275143 0.249017 -0.060996 0.00364507 0.0407637 0.0584156 -0.249877 -0.00159975 -0.148289 -0.12728 -0.0773037 0.117995 -0.0720769 0.141438 0.215578 0.0720147 0.018647 0.00160052 -0.0296767 0.0358085 0.155395 0.193715 -0.366521 0.0137936 0.0300361 -0.103505 -0.0276265 -0.205399
0.853686 0.00460382 -0.30777 -0.277789 0.103841 0.211114 -0.228382 0.0943741 -0.113873 -0.267896 -0.0745697 -0.217592 -0.0949731 0.331882 0.549427 -0.0634007 -0.030109 0.0787703 -0.11026 0.0183453 0.235351 -0.0983682 -0.152593 -0.00864162 0.107026 0.0946621 -0.0703991 0.169105 0.000741091 -0.178838 -0.174448 0.0884858 -0.36967 -0.061401 -0.0178802 -0.0222667 -0.323849 0.0896593 -0.111826 -0.0211982 -0.390051 -0.178897 -0.177593 -0.291875 -0.242284 -0.0446651 -0.107349 -0.332845 -0.0639908 -0.146998 -0.0638486 -0.322467 -0.117063 0.259098 -0.102716 0.171185 0.228082 -0.273991 0.00745041 -0.0411838 0.0696848 -0.356019 0.0475768 -0.0734106 0.386775 -0.10122 -0.0686263 -0.670718 -0.510394 -0.204828 -0.304219 -0.165986 -0.317179 -0.298845 -0.127293 -0.548776 0.0398637 -0.521691 -0.196189 -0.211834 -0.328407 0.148336 -0.305098 0.0602089 -0.26228 -0.0592636 0.119589 0.123474 0.0425705 -0.262419 -0.0870647 -0.136087 0.0164775 0.0523679 -0.318842 -0.10238 0.0958465 0.0324086 0.256525 0.107411 0.0753199 -0.0204556 0.0811102 -0.056854 -0.00307728 -0.0803512 0.0113929 0.0985493 0.297825 -0.0681407 -0.0437821 -0.154214 0.219344 -0.204678 -0.345611 -0.278034 -0.2182 -0.242034 -0.337745 -0.31882 -0.3485 -0.408519 -0.144616 -0.534971 -0.229259 -0.315644 -0.270183 -0.327512 -0.515545 -0.106174 -0.43406 -0.0305487 -0.142905 -0.190192 -0.125944 -0.140096 -0.211081 -0.199597 0.129651 -0.360811 -0.0502191 -0.130137 -0.0350077 0.189921 -0.170647 0.0465679 -0.00774478 -0.376509 -0.295745 -0.239939 -0.34382 -0.298287 -0.31448 -0.495537 -0.370983 -0.543266 -0.193478 -0.351368 -0.0450169 -0.422931 -0.173795 0.0614552 -0.58448 -0.0354431 0.0057113 -0.0559237 -0.315598 0.0679514 -0.090371 -0.17027 -0.246345 -0.116836 -0.328176 0.215788 0.0890264 0.386416 -0.0809332 -0.00317925 0.00814918 -0.0629097 -0.0724747 0.0263839 -0.251481 0.101043 0.0516776 -0.203604 -0.263348 0.141579 -0.0209019 0.0417907 0.136602 0.1115 -0.126521 -0.359253 -0.114657 0.0228983 0.0169593 -0.0111028 0.0947599 0.0793675 -0.415496 -0.282473 -0.0531659 -0.297757 -0.34731 -0.387407 -0.568119 -0.602981 -0.318439 -0.413462 -0.279776 -0.289199 -0.0808001 0.068424 -0.192108 -0.0314732 -0.130267 0.0596309 -0.142446 -0.156767 -0.673389 -0.0554724 -0.419062 -0.297883 -0.0330586 -0.12169 -0.207382 -0.236703 -0.181845 0.0328786 -0.624218 0.084014 -0.726612 -0.0137615 -0.145201 -0.516373 -0.150059 -0.183975 -0.0669084 -0.0588082 -0.168551 0.00105582 -0.0975755 -0.280602 -0.375635 -0.414033 -0.434357 -0.200253 -0.0998249 -0.264814 -0.232184 -0.378948 -0.145255 0.0356607 -0.259405 0.110817 -0.0470332 -0.126137 -0.00133148 -0.134459 0.0552142 0.0522336 -0.24772 0.202706 0.273291 -0.124032 0.078912 -0.0888926 0.232551 0.0386674 0.222643 -0.0582176 0.0612222 0.146484 0.230089 -0.117304 -0.152673 -0.0848621 -0.0294208 -0.187793 0.185872 0.110023 -0.0313629 0.0603652 -0.226337 0.111494 0.102794 0.132672 0.323508 0.220335 0.221093 0.282841 0.0345053 0.327303 0.222912 0.216409 0.43732 0.0638151 0.000940219 0.143941 -0.192466 -0.332941 -0.196459 -0.125127 0.0252696 -0.198768 0.0173657 0.236681 -0.179743 -0.305283 -0.0352366 -0.252496 0.0246749 0.286681 0.287384 0.150706 0.144629 0.343521 0.385097 0.790371 0.471526 0.391766 0.337024 0.132539 0.00118675 0.0844121 -0.349479 0.0235158 0.14951 0.101995 0.123438 -0.0982839 0.0477946 -0.072134 -0.186613 -0.185068 0.272742 0.032267 -0.11926 0.142331 0.0645182 0.336983 0.0980601 -0.0094609 0.363259 -0.0452021 -0.0618848 -0.260522 0.262302 -0.191491 0.0196307 -0.0423702 0.0659055 -0.0299418 -0.301757 -0.12516 -0.222997 0.0754433 0.135602 -0.107666 0.0398662 -0.29856 -0.024811 -0.176103 0.11201 0.502171 0.588177 0.0993332 -0.200521 0.559549 0.196087 0.53094 0.333401 0.720688 0.218849 0.304772 0.304222 0.0621493 0.0652205 -0.239861 0.141013 0.060085 0.12544 0.290554 0.071426 0.117985 0.0571321 -0.316831 0.315057 -0.172854 0.0991978 -0.0546051 -0.184289 0.244163 0.0985954 0.36134 0.273074 0.493834 0.554402 0.00874968 0.237647 0.0367439 0.896296 0.204317 -0.0731428 0.0202675 0.184356 0.0624246 -0.0811752 0.11372 0.346124 -0.0788728 0.244411 -0.0184623 0.321945 -0.162073 0.0795464 0.00298496 -0.103022 0.536749 0.516913 -0.0330369 0.106914 0.201464 -0.277983 -0.0713786 0.311497 -0.229005 0.202219 0.13129 0.0900148 0.402741 -0.306818 0.141465 -0.312055 -0.193566 0.229512 0.00311879 -0.116414 0.283697 -0.388796 -0.143193 -0.0257 0.0487514 -0.286939 0.0584442 0.00433217 0.399414 -0.308269 -0.121939 0.106126 0.20196 0.424989 0.184758 0.0538661 0.0675349 0.172857 -0.0932953 0.148683 0.34778 -0.145271 -0.272678 0.178524 -0.187056 -0.0463049 0.216968 0.136839 0.116778 0.301864 0.146254 0.0481686 0.430038 0.0472762 0.233161 0.123008 0.263395 0.0535711 0.215173 0.106982 0.153463 0.344493 0.0768198 0.22867 0.0339536 -0.0830607 0.0217368 -0.0395771 0.51911 -0.183244 0.0347123 -0.0195379 -0.00482634 0.00270304 0.0172218 -0.175621 0.00521012 0.146789 -0.0455524 -0.14876 0.157419 0.152111 -0.00333435 0.431653 0.0762768 0.153539 -0.0705329 0.17745 0.0444959 -0.00484459 0.0933936 -0.107126 -0.49024 0.225677 -0.082083 0.027973 -0.437882 -0.161901 -0.0868739 0.0819689 0.0731073 0.239536 0.0525544 -0.282243 0.069139 -0.135892 -0.043146 -0.401679 -0.274684 -0.140631 0.223388 -0.171325 0.164081 0.269152 0.0508743 -0.0641079 -0.233036 0.0144529 0.0721845 -0.0773155 0.0490069 -0.303179 0.233801 0.0315571 -0.132539 0.167102 0.360584 0.220551 0.389488 -0.0876623 0.039295 0.111166 0.201399 0.257194 0.053056 0.0819011 0.232814 0.0859068 0.0925493 -0.0569602 0.21392 0.133303 -0.249186 -0.488624 -0.222576 -0.261146 -0.113116 -0.0106238 0.142581 0.0829401 0.416003 0.130084 0.248848 0.0566552 -0.209266 0.104458 0.214668 -0.141439 -0.114304 0.322354 -0.0430975 0.305053 -0.196836 0.056516 0.0662407 0.162387 -0.0149396 0.0136723 -0.106977 0.0635901 0.137873 -0.084751 0.301835 0.308549 0.00265568 -0.0460867 -0.0460252 -0.163731 0.245142 0.0683888 -0.064511 -0.309331 0.00396265 -0.212617 -0.0717244 0.0459144 -0.0257571 -0.185198 0.306936 0.0679471 0.0780684 -0.305887 -0.208352 0.0682145 -0.145719 -0.2466 -0.0810949 -0.195497 -0.155912 -0.53126 -0.745127 -0.118445 -0.209256 -0.106246 -0.253052 -0.32383 0.035205 -0.123313 0.154654 0.000852057 0.0329851 -0.19145 -0.0194048 -0.134995 0.144809 0.11314 -0.113574 0.261012 -0.0774185 0.0372386 0.282107 -0.149367 -0.00285787 -0.0257864 -0.271628 -0.155705 -0.163472 -0.357433 -0.144775 -0.275646 -0.201162 0.0921119 -0.0797054 -0.00624214 0.00700586 0.281076 0.199286 -0.0832213 -0.080756 0.164861 0.289091 0.0656367 0.175393 -0.252893 0.0517748 0.0612773 0.350925 0.143614 0.0842441 0.0777414 0.209451 0.312715 -0.132041 -0.23681 0.0200299 0.0340962 -0.171578 -0.132739 0.0219942 0.013175 0.12206 0.197593 0.0938177 0.318504 0.143059 0.24117 0.123646 -0.204039 -0.0504908 0.0757069 0.119084 -0.0464524 0.126735 -0.363346 -0.249512 -0.0690224 0.143299 -0.0285611 0.106842 -0.233171 0.116221 0.10163 -0.162987 -0.338189 -0.0666804 -0.1907 -0.2794 0.0846896 0.305873 -0.226913 -0.151167 -0.168854 -0.141419 -0.215747 -0.125831 -0.179557 0.0361672 0.00186144 -0.296089 0.0787988 0.0624928 -0.0267035 -0.0932954 -0.0752919 -0.00762405 -0.116882 -0.340427 0.170238 0.0568981 0.00153474 -0.0769592 -0.163571 0.104978 -0.141307 -0.405398 -0.0736574 -0.187563 0.122554 -0.111471 0.129626 0.256264 0.149308 -0.0774839 0.405427 0.295569 0.071753 0.29049 -0.125062 -0.134115 0.278995 0.186057 0.016592 -0.216448 0.0614136 -0.0481707 -0.22802 0.392011 -0.373036 -0.368444 -0.056174 -0.359489 -0.187158 -0.320964 0.189421 0.169224 0.0136691 0.143194 0.0531701 0.05316 -0.180916 0.141605 0.180234 0.0713881 0.119592 -0.0651223 0.103177 -0.247024 -0.262553 0.0140941 0.159578 -0.158636 0.121796 -0.134952 -0.159965 -0.220154 -0.223398
-0.790611 -0.00191862 -0.137832 0.00975075 0.066702 0.0707247 0.05382 0.0894558 0.21975 0.00173439 -0.139905 -0.115391 0.0614768 0.0732762 0.0445279 -0.369639 -0.450443 0.117377 0.161754 0.0705577 -0.0252814 -0.130582 0.0164104 0.164282 0.0214849 -0.199654 0.041172 -0.0669452 -0.227031 -0.0418785 -0.31592 0.0916053 -0.427142 0.119389 0.171501 0.262465 -0.0258807 -0.0740831 -0.129053 -0.00511283 -0.243994 -0.24882 0.0145885 -0.280358 -0.316336 -0.0203875 -0.128363 -0.232793 0.0302287 -0.0331147 0.0341858 -0.014355 0.00982121 -0.0802304 -0.201934 -0.226458 -0.127048 0.0146642 -0.245926 -0.00353212 -0.214778 -0.0209894 0.430185 0.149596 0.0184921 -0.151513 -0.211756 -0.166617 -0.0612264 -0.128775 -0.254701 0.170134 -0.261491 -0.274116 -0.290639 -0.230383 -0.169816 0.318527 -0.365256 -0.0159466 0.0661888 0.274989 0.157322 0.377423 0.122888 0.100526 -0.18379 -0.374204 0.321488 0.0644926 -0.0601098 -0.267253 0.0912927 -0.214106 0.00482913 0.0723554 0.433062 0.0624601 0.351905 0.134046 0.159839 0.254423 0.100062 -0.0359408 0.0248782 0.0417455 -0.239771 -0.519839 -0.176563 0.0621411 -0.172343 -0.283386 -0.0949499 0.2312 -0.223456 0.148306 0.314597 0.115834 0.191865 -0.0355664 0.0128506 0.0423722 0.185222 0.411155 0.109554 -0.00897083 -0.302466 -0.0423209 -0.0402496 -0.0371041 0.23674 0.0686206 -0.274282 -0.167566 0.049316 0.0685579 -0.0700157 -0.402195 0.147421 0.0672625 -0.466755 -0.334801 -0.0812822 -0.0294809 0.177784 -0.211833 0.163797 0.102809 -0.101963 0.106745 0.0422864 0.059736 0.144267 0.2118 0.0684043 -0.0853378 0.0585315 0.0893975 0.261204 0.175821 -0.320712 0.134311 0.0312005 -0.0180151 0.0552269 0.0402608 -0.354725 0.0958875 -0.278959 0.0844977 0.012785 -0.157099 0.349207 -0.133541 0.283567 0.234669 -0.183753 0.122616 -0.273896 -0.250357 -0.330972 0.25795 -0.145593 0.271426 -0.025937 0.0939918 0.105927 0.265844 -0.256717 -0.227577 -0.0396608 -0.0484113 -0.217696 -0.0392512 0.0187647 0.134574 -0.323403 -0.0403197 0.265512 0.0433696 0.0669636 -0.0327401 -0.0825662 0.247393 0.390808 -0.0129789 0.264771 -0.115088 0.130787 0.107095 0.190936 0.0440165 -0.0321913 0.14134 0.131965 -0.123416 -0.0241533 -0.258646 0.0661936 -0.123356 0.00484968 -0.146082 -0.229274 -0.390833 -0.376313 0.177713 0.0362183 -0.277546 -0.0385647 -0.389947 0.0973625 0.00372506 -0.00171635 0.124833 0.0576361 0.133198 0.105448 0.20465 0.319934 -0.314563 0.0074729 -0.314429 0.194823 0.00178339 0.102266 0.0571136 0.00658839 0.0926639 -0.285617 0.129965 -0.278571 -0.15602 0.131425 -0.00540207 -0.0584077 -0.042716 -0.293568 0.266311 -0.325513 -0.29285 -0.292831 -0.338791 -0.190914 0.0766967 -0.0339988 -0.0807085 0.0131994 -0.187364 0.209125 -0.178596 -0.0116845 0.0892401 -0.126587 -0.0497846 -0.0492095 0.0650358 -0.36372 -0.170482 0.0692751 -0.10396 0.0613005 0.117223 0.119293 -0.088699 0.0688227 -0.215222 0.218021 0.00445447 0.0141459 -0.0587987 -0.115922 0.110516 0.254879 -0.013008 -0.286634 0.0368101 -0.185659 -0.239959 0.412142 0.159697 0.169727 -0.211955 -0.253606 0.251955 0.220666 0.042395 0.303071 0.154173 -0.0330683 0.0673386 0.238382 0.037262 0.356883 -0.300188 -0.144049 -0.0631207 0.167858 0.1357 -0.360192 0.109715 0.248584 -0.028654 -0.338933 -0.1743 -0.0483071 0.109775 -0.0808477 0.208452 0.326042 0.417884 0.43825 0.0670519 0.0816244 -0.0898211 0.241019 0.140765 0.239156 0.0196858 -0.0153422 -0.0974592 -0.00844093 -0.077781 0.380613 -0.0346785 -0.0722823 0.0172993 -0.0637743 -0.0018373 -0.371816 0.11813 0.0526253 0.00883797 0.263027 -0.221747 -0.310393 -0.173339 0.181509 -0.229291 0.119687 0.268002 0.121057 -0.44894 0.00222523 0.0529203 -0.0562788 0.186584 -0.517748 -0.0229991 -0.254266 -0.316498 0.234459 -0.465714 0.101523 0.163531 0.0389386 0.0850397 -0.144113 0.0801936 0.0667782 -0.256711 -0.163763 -0.0350388 -0.00423703 0.0663799 0.175401 0.176414 0.151379 0.321616 0.432694 -0.0462248 0.200441 -0.126742 0.0504109 0.225607 0.164538 -0.10583 0.128704 -0.0829517 -0.0686274 0.100718 -0.104015 0.163715 -0.155563 -0.0314633 0.0145841 -0.0457077 -0.21146 -0.065739 -0.227093 -0.220417 -0.0920078 0.0138606 0.195655 0.0781963 0.183391 -0.0165381 0.131214 0.344155 0.0101344 0.0303569 0.0105871 0.114988 -0.118141 0.0925278 0.00931453 -0.0142904 -0.239691 -0.119842 0.104967 -0.119743 0.042332 0.260354 -0.30953 -0.353829 0.0956054 -0.113603 0.313252 0.130395 -0.321864 -0.0529907 -0.160111 0.175705 0.279896 0.0253559 0.0786751 0.0342539 -0.208884 0.0126014 -0.129287 -0.0693471 0.12871 0.27861 -0.014706 0.119107 0.152568 -0.0387144 0.349468 0.295976 -0.150699 -0.0713885 0.211627 -0.10268 -0.121559 0.0611239 0.0773574 0.153011 0.00465802 0.49286 0.104684 0.212642 0.272863 0.232431 -0.120723 0.252705 -0.0491708 0.0147613 -0.0286871 -0.139756 -0.0747026 0.0269825 0.267497 0.123248 0.489605 -0.212521 -0.110537 0.0062961 0.0410071 -0.196647 0.0200357 0.0940143 0.053994 0.0857989 0.0484226 0.275687 -0.270285 0.0546272 0.267475 0.32027 0.305365 0.211632 0.45028 -0.174325 0.158228 0.151413 0.045384 0.122071 0.241948 -0.226246 -0.0689198 0.053617 0.174979 -0.170325 -0.306689 -0.0531723 -0.0302336 -0.19122 0.0604779 -0.0103929 0.0136357 -0.213442 0.217794 -0.0809864 0.306877 -0.146222 -0.303348 0.0999247 -0.131115 0.00258084 -0.115246 -0.168093 0.250741 0.27605 -0.235316 -0.082247 -0.0191651 0.058328 -0.219569 0.102674 0.190987 0.0747761 0.0894586 0.272694 0.256253 0.279697 0.253465 -0.0197781 -0.243521 0.145938 0.0418556 0.218348 -0.247385 0.632731 -0.0120679 0.0352998 0.108892 0.0477681 -0.0485278 0.227385 -0.185172 -0.253441 -0.188693 0.0650257 -0.0714108 -0.090317 0.109169 -0.363733 0.423142 0.248777 0.291787 -0.137309 0.334479 -0.167363 0.126271 0.0213994 0.472823 0.205182 0.375234 0.530968 0.49919 0.505566 0.173731 0.0877605 0.0621871 0.144086 0.0673045 -0.0796979 0.20082 0.0574376 0.226491 -0.139914 -0.305178 -0.118224 -0.100943 0.258271 0.14959 0.240402 -0.563254 0.021401 -0.1021 -0.199143 0.0939079 0.112902 -0.0593816 0.257343 -0.303614 -0.0831122 -0.135882 0.241014 0.0576046 0.0339411 -0.306089 -0.274598 0.129053 -0.0976 0.0694181 -0.248818 0.169493 -0.154125 -0.120799 -0.130093 -0.446177 -0.233636 -0.238552 -0.29582 -0.318532 0.0970157 -0.442246 -0.295883 0.0284459 -0.0683901 -0.00532065 -0.0584457 0.0417875 -0.115781 -0.0403617 0.18182 0.116393 0.402718 0.0801086 0.0590177 0.0513948 -0.119765 0.181657 0.134677 0.138934 -0.124415 0.18622 -0.233408 0.000455692 -0.0785889 -0.129073 -0.211277 -0.285619 -0.236195 -0.0417678 -0.157324 -0.122696 -0.175645 -0.220982 -0.0823142 0.126653 0.129528 -0.219417 -0.110738 0.309784 -0.0202991 -0.167196 0.156165 -0.190322 -0.00456561 0.0222427 0.328007 0.0913424 0.120258 -0.0652377 -0.144253 0.0326138 -0.346965 -0.113517 -0.0126854 -0.0338673 0.01387 0.120152 -0.0194204 -0.22172 -0.00384435 0.214671 -0.304307 -0.301235 0.192551 -0.493699 0.113774 -0.0159654 0.165329 -0.0166837 0.122056 0.506479 0.0654252 -0.24094 0.167908 -0.0352373 -0.216911 0.118594 -0.0627519 0.197187 -0.170031 0.21885 -0.272576 -0.215557 -0.301305 -0.0641171 -0.331219 -0.255571 -0.539207 0.0478085 -0.313572 -0.468533 -0.480185 -0.517965 -0.471636 -0.609845 -0.495573 -0.26635 -0.403463 -0.0413634 -0.234074 0.289442 0.107844 0.157629 0.16475 -0.299689 0.0704682 0.0278517 -0.220651 0.0852492 -0.472707 -0.384101 0.0738786 -0.0688469 -0.146526 -0.370168 -0.487746 -0.722791 -0.356208 -0.50655 -0.581314 -0.57667 -0.696186 -0.540899 -0.169049 -0.0439633 -0.00475828 -0.0899104 0.0418887 -0.0351052 -0.343063 -0.148082 -0.317064 -0.121432 0.117651 -0.229364 -0.0275356 0.0554878 0.231977 0.00667187 0.048269 0.0179427 0.33153 -0.312993 -0.0294017 0.0602636 0.155113 0.167489 0.210527 -0.18075 -0.00112269 0.131777 -0.032412 -0.297247 0.14349 -0.177286 0.478734 0.11468 -0.254437 -0.27834
-0.0647968 0.302787 -0.109636 0.147754 0.0759292 -0.177071 -0.34293 -0.0826787 -0.0175739 0.244441 -0.367141 0.0719919 0.146892 -0.319271 -0.0564617 -0.116195 -0.0270559 0.118554 -0.124578 -0.207919 -0.359346 -0.106454 -0.229934 -0.0806051 0.418727 -0.0200618 0.19478 0.0107266 -0.0829741 -0.00859118 0.146838 -0.231454 0.0226357 0.189267 -0.112897 0.143212 -0.019831 0.136337 0.0245511 -0.417888 0.630105 -0.121043 -0.0323075 -0.332757 -0.027894 0.0947016 0.0356891 0.0391316 0.33228 -0.151638 0.291876 -0.227294 0.0374834 -0.320523 -0.162286 0.206502 -0.0889198 0.0630699 0.0320285 0.131791 0.0365029 0.309761 0.121214 -0.0488099 0.0874922 -0.0750567 -0.138849 0.0989915 -0.142314 0.199831 -0.30875 0.266185 -0.127207 -0.0145566 -0.0914805 -0.130404 0.172543 -0.321815 -0.0919186 0.214103 -0.0861569 -0.217434 -0.06595 -0.421679 -0.398385 0.0649909 0.181829 0.387636 0.132887 -0.0314644 0.0917803 -0.24554 -0.0752012 0.222283 -0.312165 0.234701 0.0856273 -0.118525 0.223505 -0.335978 -0.0138121 -0.179238 -0.116353 0.19769 -0.341926 0.310124 -0.045556 -0.393462 -0.0422906 0.260886 -0.049149 -0.187406 0.00995989 0.0217618 0.302343 -0.0156297 -0.0764975 -0.0139281 -0.17362 0.0798137 0.0342174 0.0453529 -0.0665777 -0.163437 0.193357 -0.0165204 -0.0657969 -0.00771462 -0.287871 -0.371864 0.571014 -0.34657 -0.383652 0.454543 0.109137 0.0640978 0.00758171 0.164052 0.0466737 -0.244831 0.059904 -0.114346 -0.115924 0.0813413 0.260689 -0.0711425 0.00234354 -0.205544 0.0699156 0.0795642 -0.137228 -0.198921 0.143867 -0.0202356 -0.255182 -0.0811347 0.245501 0.00567937 -0.0946773 0.12345 -0.00972831 0.0491445 -0.319684 -0.0360493 -0.157852 -0.116275 -0.0408667 -0.0527211 -0.155753 0.0582302 -0.167384 -0.409214 -0.23881 -0.0446293 0.0286633 0.264772 0.269777 0.0118027 -0.101368 -0.060301 -0.168312 -0.202899 -0.268217 0.0527286 0.0419242 -0.126264 -0.250783 -0.0210161 0.150744 0.31376 -0.0661089 0.106581 0.377951 0.00152536 -0.0135223 0.280978 -0.263749 -0.121338 -0.176885 0.0158664 0.144659 -0.0766669 -0.114717 0.0401067 -0.0151064 -0.0522139 0.0550413 0.107714 0.273607 0.308355 0.154402 0.0718485 -0.0526873 0.120321 0.0828309 0.0287704 0.186866 0.0818759 0.505222 0.462211 0.251191 0.0408162 -0.259663 0.0935845 0.0798579 -0.0565685 0.208344 0.201787 0.154634 0.28448 0.243827 -0.119172 0.222156 -0.0712202 0.195507 0.136844 0.340698 -0.170045 0.0583386 -0.340209 -0.0145202 -0.0370792 0.318009 0.386508 0.258521 0.210577 0.276204 -0.159433 0.255372 0.29836 0.0477285 0.130108 0.242875 0.222436 -0.0702103 -0.160579 -0.0207309 0.314594 0.237584 0.154945 0.27847 0.130209 -0.389828 0.100532 -0.000931536 0.00949589 -0.000206714 -0.0065204 0.0300774 -0.101707 0.216259 -0.186948 0.241724 0.145612 -0.0215974 0.269867 0.205692 -0.157539 -0.420613 0.366007 0.0683038 -0.0125648 0.0460049 0.185283 0.172559 -0.164349 0.318806 0.161307 0.12377 0.434782 0.0170618 -0.211279 0.214899 -0.146028 -0.0538728 -0.0822834 -0.301007 -0.110345 -0.23704 -0.112335 -0.0881186 0.111262 -0.0281685 0.240925 0.0710959 0.216448 0.345362 0.365886 0.511477 0.277398 0.129606 -0.12698 0.143068 0.153011 0.235267 -0.179905 -0.120107 0.0679585 0.217948 0.00882818 -0.516307 -0.0456485 -0.16752 -0.281455 0.251295 -0.146777 -0.249027 0.115548 -0.164153 -0.380094 -0.0987389 -0.01347 -0.0415186 -0.0314124 0.203663 0.211751 0.352376 0.0101972 0.0873768 -0.280668 0.0989025 -0.29027 -0.196878 -0.0938423 -0.217019 -0.297604 0.545103 0.0224152 0.205048 -0.080233 0.014711 -0.184038 -0.0217079 -0.179355 0.058538 0.00246849 0.101958 -0.384311 0.185997 0.0215723 0.105008 -0.143967 0.119517 0.499824 0.266979 0.238823 0.142915 0.140959 -0.0805915 0.117865 0.211779 -0.07749 -0.392894 0.10283 -0.11809 -0.257555 -0.175095 -0.223434 -0.226009 0.0158902 0.15084 0.056838 -0.318982 -0.191783 0.0915853 -0.332301 0.0122157 -0.0868684 0.0307484 -0.131648 0.220377 0.391407 0.0139547 0.0403789 -0.0622551 0.172723 0.182082 0.309363 0.0301256 0.111325 0.141538 -0.305099 0.190307 -0.0598071 -0.129741 0.0924197 -0.305926 0.0640321 -0.292816 0.0592413 0.0166117 0.232403 -0.0259052 0.121239 0.133374 0.0972361 -0.0529422 0.0326172 0.295271 0.0312374 0.071027 -0.090168 0.129491 -0.115358 0.274117 -0.0627795 -0.16631 0.0550594 -0.0973019 -0.380997 -0.244505 -0.0504988 0.246817 0.163956 -0.136217 0.169111 -0.326618 -0.123826 0.0326267 -0.328522 0.213865 -0.201574 -0.103604 -0.0918274 0.134391 0.181427 0.0341325 -0.187121 -0.031853 0.016314 0.353923 0.247769 -0.0059616 0.479326 0.577164 0.196411 0.292978 0.0647938 -0.0249116 -0.457562 -0.153887 -0.218815 0.138312 0.0179097 0.0273424 -0.415397 0.270865 -0.189894 0.00465244 0.0885541 -0.0797617 0.229483 -0.190353 0.044935 -0.196732 -0.294533 0.0713839 0.184552 0.212611 0.354504 0.254603 0.898314 0.430904 0.697846 0.372263 0.488898 0.322335 -0.23666 0.13701 0.0126462 -0.170845 -0.219212 -0.24298 -0.0201364 0.310136 -0.0232307 0.269562 -0.240197 0.0141611 -0.280063 -0.0660759 -0.259706 0.0775729 -0.172101 -0.238727 0.280514 -0.0485527 0.47536 0.0583593 0.274633 0.00826256 0.129121 0.0868769 -0.0536314 0.0703536 0.0291481 -0.0387575 -0.0623721 0.133353 -0.292561 0.173957 -0.353859 0.368086 0.0134485 0.230862 0.0856795 -0.0304285 -0.1406 0.0484598 0.118913 0.245069 -0.161699 0.122542 0.118092 0.232793 0.261328 0.674387 0.463793 0.326351 0.209607 1.10165 0.990063 1.01648 0.742778 0.852259 0.503437 0.59843 0.664017 0.330949 0.376685 0.0780708 -0.191242 0.0845486 0.0990932 -0.0119311 -0.180529 -0.333254 0.0375592 -0.323431 -0.273556 -0.200782 -0.0357763 0.063923 0.158168 0.207546 0.145007 0.147931 0.369192 0.672846 0.542404 0.769608 0.838539 0.657844 0.586576 0.579698 0.79013 0.117521 0.291197 -0.0353588 -0.0950957 0.0698348 -0.080666 -0.147363 0.0185323 -0.151548 -0.306438 -0.488743 -0.206587 -0.037009 -0.137129 0.0382349 -0.167234 -0.29103 -0.169965 -0.0225733 -0.0588794 0.175089 0.107886 0.0576577 -0.0793779 -0.0860999 -0.163985 0.411838 -0.0449449 0.281595 -0.0103027 0.204067 0.0520068 0.0756935 -0.00219115 -0.196277 0.16143 0.0397581 -0.00937398 -0.146617 -0.0798702 0.212608 -0.1949 -0.0140217 -0.178839 0.234982 0.0128969 0.33397 -0.00132469 -0.038262 -0.228246 -0.0478162 0.425128 -0.0107389 0.0594863 -0.0347769 0.225188 0.0848983 0.255907 -0.131823 0.114962 0.0777141 -0.342599 -0.055977 0.00510729 -0.0203849 0.0757498 -0.176436 -0.291685 -0.120988 0.0863599 0.0825157 -0.0807348 0.0781554 -0.384501 0.165235 -0.421215 -0.126088 0.216999 -0.129696 -0.178942 -0.19736 -0.161868 -0.00200172 -0.184105 -0.0393331 0.147083 -0.0581139 0.274413 0.0895113 0.0247069 0.118354 -0.0322961 -0.0378442 -0.181516 -0.378657 0.137205 -0.111391 -0.0824372 0.00991143 0.11346 -0.216137 0.271042 -0.157126 -0.374801 -0.0812214 0.0489772 0.142862 0.0621497 -0.0376994 -0.227976 0.0913111 -0.212281 -0.269485 0.218137 0.159837 -0.0613894 0.00267029 -0.0279701 -0.123703 -0.110152 -0.283898 -0.00169305 0.193817 0.0490608 0.262446 -0.0819322 0.0910797 -0.0509192 -0.1066 -0.259344 0.0459047 -0.31667 0.0419957 -0.0811853 -0.229676 -0.33614 -0.239008 0.161608 -0.218461 0.0946944 0.168242 -0.185534 0.0882786 0.217776 -0.229288 0.0717337 -0.271499 0.191435 -0.337945 0.00521119 0.0539221 -0.237911 -0.0501766 -0.16715 0.195089 -0.151363 0.122265 -0.433645 0.13523 -0.036972 -0.19044 -0.113922 -0.14477 -0.590521 -0.141959 0.0928161 -0.378468 -0.402946 -0.183376 -0.130533 0.108448 -0.157214 0.106021 0.163228 0.0294732 0.461152 -0.0807298 0.0914118 0.0786728 0.0562751 0.180351 0.209061 -0.151307 -0.00683908 -0.158515 0.00608319 0.0823646 -0.100464 -0.280082 -0.183051 -0.0760982 0.217124 -0.0779724 -0.122391 0.019958 -0.123939 0.127275 0.249325 -0.0548474 0.129796 0.0455696 0.145827 -0.42836 -0.17885 -0.189665 -0.192774 -0.0745163 0.0738235 -0.0894274
-0.107378 0.17919 0.263154 -0.0918615 0.207854 0.190473 -0.0663711 -0.0460763 0.132644 0.101726 0.330365 0.193989 0.111528 -0.357122 -0.250439 -0.26861 0.196685 -0.132738 0.00305847 0.151377 -0.077427 -0.0483676 0.0729604 -0.449201 0.0956549 0.146351 -0.0513291 -0.154597 -0.201656 -0.545753 -0.0316705 -0.0491595 0.0203439 0.233547 0.250352 0.368929 0.330688 0.158257 0.346714 -0.0203994 0.430773 -0.139664 0.045405 -0.351483 -0.0813525 -0.0713552 0.0186596 -0.133338 -0.158737 -0.119934 0.480426 0.0913537 0.0981518 0.422577 -0.17557 0.110414 0.124113 0.0641572 0.012173 0.216884 0.177447 0.132708 -0.138669 0.037785 0.522856 0.430715 0.248161 -0.0402321 0.311196 0.305778 0.0965134 -0.030887 0.156247 -0.325295 0.148691 -0.0195406 0.0729576 0.436279 -0.0242875 0.188184 0.0491559 0.137613 0.473947 -0.15762 -0.0310566 0.11629 0.311402 -0.0441941 0.072 -0.0993406 -0.0406905 -0.0488894 0.297475 -0.00274496 0.2154 -0.0586468 0.023297 0.169679 -0.202198 0.105769 0.106191 0.168814 0.0473176 0.273845 0.0131776 -0.267911 0.0510821 -0.220205 -0.021636 0.0107215 0.112983 0.234853 0.0348368 0.144805 -0.0190553 0.351196 0.0921379 0.103316 0.198496 0.0386216 0.0980508 0.342404 0.152815 0.288799 0.298343 -0.122806 0.43825 0.29395 0.382968 0.340034 0.252038 0.575414 0.392122 0.284586 0.469205 0.263081 0.00271215 0.0424012 -0.00680429 0.00441446 -0.0590764 0.359404 0.1967 -0.223464 0.00627939 -0.0229685 0.00488932 0.00990962 -0.227618 -0.216368 0.130854 0.0261586 0.205002 0.273294 0.581556 0.451604 0.261975 0.184359 0.41383 0.08041 0.252527 -0.215483 0.0645538 -0.0906211 0.327429 0.116103 0.00765428 0.00749724 -0.122459 0.132228 -0.132334 -0.339565 0.166816 0.250054 -0.118528 -0.154429 0.0204733 -0.268971 -0.0609543 0.0651891 0.270042 0.166388 0.0408434 -0.16717 0.184351 0.188639 0.0965074 -0.0145855 0.0801749 0.12001 -0.312776 0.064832 -0.126327 -0.266101 0.047743 0.198035 -0.223954 -0.0406718 0.0751148 0.08243 0.0669313 -0.230387 -0.170185 0.210036 0.14687 -0.451657 -0.214837 -0.266655 -0.109322 -0.293687 0.089255 -0.0539465 0.026911 -0.332842 -0.29861 -0.0336601 -0.134665 -0.110144 -0.104607 -0.084261 0.213204 -0.268476 -0.324618 0.0288436 -0.176139 0.355555 0.0222954 0.00724935 -0.10057 -0.175649 -0.183839 -0.389914 -0.480666 -0.113364 -0.509426 -0.326818 -0.618148 -0.324326 -0.397214 -0.465594 -0.44025 -0.0880352 -0.113253 -0.226713 -0.180167 -0.461483 0.00614209 0.268513 -0.437789 -0.068332 -0.141702 0.140028 -0.341417 -0.388572 0.158453 0.120212 0.245317 0.310214 -0.32804 -0.0385888 -0.0918633 -0.0848213 0.22537 -0.0493883 -0.206949 0.00440364 -0.063778 -0.303669 -0.210341 -0.0515183 -0.0708734 0.207506 0.0892623 -0.0697606 0.055205 -0.116556 -0.176223 -0.124418 -0.111933 0.320645 0.0309398 0.0796075 -0.273698 -0.315564 -0.190573 -0.413624 -0.330586 -0.0401312 -0.5229 -0.190278 -0.198996 -0.523891 -0.363532 -0.209726 -0.221357 0.0873468 -0.484361 0.0786065 -0.310941 -0.108016 -0.189372 -0.0359357 -0.076022 -0.0537464 -0.141017 -0.15482 0.00840186 -0.0481836 -0.272625 -0.28734 -0.11971 -0.120237 -0.19385 -0.466794 -0.0793591 -0.0154473 -0.155818 -0.221737 -0.468278 -0.272962 -0.589199 -0.259426 -0.190384 0.0371019 -0.0464892 -0.199035 -0.470483 0.0787152 -0.151703 -0.454335 -0.447525 -0.215635 0.133553 0.0652993 -0.139149 -0.167532 0.326216 0.251074 -0.177656 0.0129232 -0.181596 -0.134895 -0.232556 0.0248616 0.0177843 0.224372 -0.182353 -0.220273 -0.172569 0.0957815 -0.226518 0.0160902 -0.136644 0.0103295 -0.246134 0.26362 0.261038 -0.0376094 0.236918 -0.0477224 0.100286 0.11374 -0.147267 -0.122918 -0.0365798 -0.208884 -0.408263 0.0513267 -0.276654 -0.198676 -0.32175 -0.240089 -0.259595 -0.0813117 -0.251928 -0.261802 -0.128694 0.0716645 0.0290294 -0.0116355 -0.0930714 -0.0583307 -0.354108 0.0331206 -0.0801561 0.0588627 -0.249805 -0.00438067 -0.0635844 -0.0963581 0.0444969 0.0478868 0.374738 -0.0653318 0.142964 -0.17213 -0.100806 -0.0854257 -0.45839 -0.242753 -0.0721517 -0.327469 -0.340147 -0.0722686 -0.184646 0.132539 -0.0722171 -0.0106229 -0.0959947 -0.273632 -0.104096 -0.244662 0.132563 0.11162 -0.154383 0.0811812 0.0449283 -0.161599 -0.0519693 0.116675 -0.147783 -0.155171 0.065879 0.0858184 -0.137113 -0.103142 -0.196938 0.00207092 0.0110762 -0.126702 -0.0791098 0.0568446 -0.00450284 0.117281 0.268328 -0.300772 0.127881 0.157886 -0.21472 0.227762 0.0861983 -0.0705427 -0.178145 0.0324438 0.239681 -0.0150634 0.169169 -0.168196 0.177184 0.299899 -0.092013 -0.100421 -0.118462 -0.231577 -0.467217 -0.124599 -0.419573 -0.174087 -0.544779 0.103141 -0.104653 0.166048 -0.226084 0.149525 -0.0723295 -0.185821 -0.247277 -0.232319 -0.0598304 -0.0496329 -0.191672 0.0969583 0.00631005 0.125772 0.366352 0.02829 0.304247 -0.0832657 0.00393912 0.0812583 -0.015934 -0.109268 -0.307835 0.12016 0.110913 -0.0199809 -0.0669086 0.101862 -0.0421817 -0.0773548 -0.107905 0.0307511 -0.254272 -0.160038 0.014621 0.1095 -0.101503 -0.234995 -0.275298 0.0706333 -0.182239 -0.231435 0.116535 -0.110813 0.0379226 0.0745771 -0.0385708 0.0011249 0.251156 0.114381 0.108505 0.156386 0.056163 0.129481 -0.143324 -0.161485 0.0760083 0.403811 0.099544 -0.337581 -0.218516 -0.233847 -0.00608248 -0.106616 0.124374 -0.268821 -0.128165 0.15363 -0.0771042 -0.357944 0.220021 -0.167595 0.142738 0.0809642 -0.0589905 -0.15319 -0.0341151 0.371941 -0.16297 0.0159959 0.00670847 -0.0146441 0.22766 0.16503 0.126074 -0.174211 0.125871 -0.155978 -0.431397 -0.517552 -0.137024 -0.214982 -0.0364213 -0.107058 -0.0268905 0.075321 -0.0457029 0.0414572 0.228357 -0.320035 -0.0201818 -0.388539 0.223855 -0.182428 0.171297 0.274148 -0.0783797 0.156516 0.0482296 -0.0190583 -0.0329186 0.0190536 -0.402308 0.0636907 -0.246254 0.0462187 0.349218 -0.183616 -0.287332 -0.0320787 -0.131056 0.0723557 0.227277 -0.134535 -0.00444259 0.405229 0.141875 -0.0904781 -0.174926 0.0405129 -0.0491884 -0.191229 -0.178144 -0.419641 -0.059924 0.0836233 0.1206 0.00137928 -0.127059 -0.241409 0.00301311 0.0620735 0.0759311 0.196407 -0.0266023 -0.0934099 0.133621 0.0834601 0.0695593 -0.19506 0.076213 0.0845457 -0.18624 0.144708 -0.0495177 0.0730057 -0.265988 -0.215005 0.0693873 0.0355118 0.106603 0.123183 0.0796899 0.113503 0.293363 0.265396 -0.119211 0.0667877 0.400389 0.100477 -0.110558 0.10857 0.0830166 0.509246 0.300642 0.0511753 0.132953 -0.16418 0.243204 0.312435 0.442764 0.120324 0.139306 -0.226683 0.447876 0.0123923 0.0319492 -0.122451 0.639252 0.292922 0.43245 0.395941 0.329009 0.389582 0.449626 0.545604 0.222013 0.386478 0.35988 0.271973 0.483344 -0.186594 0.124819 0.305113 0.0755691 0.0687188 0.131633 0.160706 0.0764068 0.272346 0.151809 0.203199 -0.0529907 -0.0921261 0.310538 -0.281826 -0.214798 0.0350663 -0.156506 -0.00149131 -0.172491 -0.0997 -0.200129 0.323905 0.0808249 0.0827993 0.0785353 0.0955126 -0.00102414 -0.112475 -0.260494 0.110937 -0.366923 -0.0782823 -0.225398 0.0403424 -0.166111 0.119026 -0.149768 0.105218 -0.00183395 0.297028 0.257978 0.47677 0.321729 0.421896 0.396018 0.211655 0.104152 0.438921 0.493313 0.419458 0.24375 0.355284 0.477411 0.566509 0.644236 0.328276 0.677844 0.338346 0.20198 0.367941 0.361534 0.196071 -0.187052 -0.124888 0.0324354 -0.124709 0.0944143 0.271181 0.233782 0.0509023 0.400561 0.470252 0.392567 0.210779 0.511014 0.156915 0.558887 0.3751 0.395994 0.512717 0.552723 0.544068 0.354325 0.822217 0.551115 0.600809 0.436814 0.454848 0.131329 0.437991 0.0875133 0.060781 -0.0815396 -0.307501 -0.0707583 -0.270357 0.317019 -0.0931129 -0.000281866 -0.252834 -0.22948 0.0121805 0.314339 -0.0989068 -0.389838 -0.0798735 0.164404 0.166954 0.286243 0.0383348 -0.076791 -0.231497 -0.285277 -0.00253003 -0.323998 0.0320357 0.254117 0.114463 0.0229144 -0.13517 -0.222106 -0.021925 -0.0728204
0.613217 -0.000109885 0.296886 -0.0332216 -0.151973 0.125775 0.165281 0.14624 -0.134001 0.164005 0.141595 0.0948876 -0.047103 0.163032 0.143005 -0.173223 -0.282964 -0.0249974 0.0832841 0.0270273 0.0313558 0.174517 0.0883354 -0.0270993 -0.172119 -0.255171 0.299595 -0.173898 0.0918648 -0.080253 -0.0821745 0.0504142 -0.0988792 -0.13696 0.10257 -0.350525 -0.19978 -0.0183039 -0.378313 -0.00266773 -0.021902 -0.0316983 -0.323435 -0.302365 -0.106799 -0.154036 -0.129104 -0.0452494 -0.13368 -0.324218 0.00247286 -0.0346299 -0.144261 -0.342825 0.213956 -0.227125 -0.185241 -0.264357 -0.0137854 0.0222082 -0.0735694 -0.27063 -0.469809 -0.405878 -0.0174678 -0.213836 -0.0287351 -0.145201 -0.288888 0.0999457 -0.250953 -0.0295354 -0.149069 -0.290254 0.105618 -0.112634 -0.198051 -0.460466 0.00543342 -0.141101 -0.108378 -0.193885 0.458691 -0.261605 0.0017918 0.0204864 -0.101726 0.0536297 -0.181428 0.270685 0.010189 -0.502877 -0.286879 -0.247637 0.218009 -0.263767 -0.102571 0.100789 -0.296503 -0.190217 -0.305467 -0.099099 -0.140161 0.0282425 -0.126103 0.114915 0.18465 0.0647141 -0.133826 -0.168422 0.330408 -0.175632 -0.0722031 0.210625 -0.0253746 -0.00760747 -0.216617 -0.0661562 -0.537178 0.0666521 0.122244 -0.402574 -0.0970632 -0.175808 -0.148403 -0.155471 -0.200844 -0.186786 -0.197128 -0.167046 -0.18899 0.0270996 -0.0666042 0.131872 -0.0369511 0.162676 -0.108896 -0.0160225 -0.119534 0.250422 0.230208 -0.223444 -0.344132 -0.15326 -0.333195 -0.51046 -0.0968227 -0.0825346 -0.00873895 -0.148154 -0.0478072 -0.498742 -0.320329 -0.456741 -0.00674745 -0.244192 -0.189867 0.181534 0.131522 -0.115018 0.348003 -0.0743081 0.276253 -0.104758 -0.0222596 0.0932403 0.0495028 0.0111827 -0.0715548 0.135599 0.0234674 0.184948 -0.198562 0.0265856 -0.0709109 0.113651 -0.129103 -0.251186 -0.000512712 -0.0312047 -0.063999 -0.0855304 -0.260733 0.0210021 -0.0358588 0.0644936 0.019592 0.208444 -0.04034 -0.24957 0.224728 -0.0482368 -0.0292226 0.0831278 -0.0664543 -0.00159545 -0.250768 -0.000509396 -0.286907 0.129189 -0.184862 -0.123702 0.100458 -0.4383 0.0778038 -0.4073 -0.303499 -0.0162254 -0.2054 -0.38648 -0.0778435 0.0741539 -0.0901149 0.634275 0.525359 0.243599 0.240128 0.232923 0.280865 0.263353 0.12958 0.253985 -0.00210902 0.224515 -0.449539 -0.233994 -0.291785 -0.0203485 -0.220067 -0.176377 -0.251155 0.120475 -0.213528 -0.377212 0.0663093 -0.170463 0.287999 0.114526 0.221467 0.159812 0.288842 0.500733 0.235317 0.362142 0.399311 0.154239 0.491904 0.393058 0.308528 0.0151128 0.0561474 -0.392994 0.123378 -0.0931715 0.247494 0.0947074 0.308968 -0.194496 -0.164035 -0.0305751 -0.121496 0.0560292 0.271716 -0.217691 -0.0608539 -0.234098 0.103564 -0.206513 0.175131 0.117946 -0.12498 0.1435 -0.0125478 -0.183686 0.16848 0.138285 -0.157714 -0.227504 0.0600237 -0.0024173 0.0535974 -0.156084 -0.09026 0.112012 0.11044 -0.0679597 0.16426 0.12985 0.293074 0.378584 0.00180037 0.217066 0.173446 0.0547934 -0.0203121 0.0216946 0.273051 -0.0276157 0.143383 0.479781 0.0585121 0.168052 0.190123 0.183089 0.0915656 0.179923 0.169471 -0.0731513 0.0265706 -0.0915456 0.133209 0.104326 0.0474784 0.32106 0.143787 0.15859 0.321394 0.270541 0.388723 0.0515478 0.355447 0.233201 0.26811 0.0684161 0.00668314 -0.0127253 0.27721 -0.0278367 0.0931038 -0.0409633 0.166374 0.512606 0.171683 0.168706 -0.0935768 -0.131499 -0.124501 0.049701 0.00143057 0.0188444 -0.190527 -0.101436 -0.086362 0.0342045 0.00639242 0.152778 0.0180073 0.0704552 -0.0784261 0.265876 0.0261975 0.41565 0.0672435 -0.439718 0.229552 -0.169315 -0.0489512 -0.0689274 0.00681703 0.185858 0.0347674 0.109479 -0.013201 -0.268522 0.185841 0.342064 0.131464 0.227489 0.372071 0.138472 0.396666 0.0700189 0.308316 0.0178371 0.145699 -0.228079 -0.214365 -0.109249 -0.0644052 -0.126014 0.107921 0.144169 -0.039564 0.0400226 -0.0518472 -0.0223922 -0.269437 0.0287707 0.398985 0.0240841 0.228825 0.0670828 -0.0538178 0.105739 0.0598145 0.043207 0.270299 0.212192 0.354725 0.294415 0.388419 0.135209 0.208481 -0.134637 0.233465 -0.257652 0.0870024 -0.35175 -0.0434524 0.148221 -0.00429881 0.23704 0.195198 0.133432 0.279946 -0.280342 0.323429 0.202506 0.363347 0.24038 -0.250039 -0.162478 0.0695843 -0.186558 0.106298 0.02066 0.356502 -0.103863 0.151289 0.18477 -0.12914 0.0235378 -0.373349 -0.0828143 0.0146505 -0.338528 0.252929 0.00514339 -0.0413577 -0.019818 -0.026786 0.0661015 0.326168 0.0188026 0.147653 -0.156661 -0.0980961 0.227353 -0.150848 -0.0395958 0.247345 0.0455362 0.15125 0.141188 -0.0546101 0.128334 -0.12064 0.14698 -0.0399096 0.109454 -0.0993887 -0.332153 0.300306 -0.00776851 0.0205282 -0.313391 0.00567103 -0.0182989 -0.102042 0.0095507 0.194636 0.0174525 -0.0705122 -0.161981 0.151764 0.276365 0.149285 0.342404 0.223745 -0.0854065 -0.0479658 0.0454294 0.237723 0.0518333 0.0434538 0.212096 -0.186939 0.479105 -0.215899 -0.0680959 -0.249285 -0.161923 -0.0460154 0.191817 -0.116362 0.18863 0.151934 0.414589 -0.0379251 -0.0187778 -0.105825 0.0462025 0.144375 -0.233775 -0.0293427 0.0132626 -0.19577 0.137202 0.136635 0.105248 -0.00891917 0.327842 0.0383599 -0.0784327 0.0131532 0.0294738 -0.0940825 0.0591728 0.100052 0.0705502 -0.138336 -0.18725 0.384218 0.374362 -0.0023305 -0.282575 -0.190142 -0.173409 -0.302915 0.450202 -0.11521 -0.0956399 0.0208307 0.011025 -0.359712 -0.143597 0.380084 0.259119 -0.298295 0.165345 -0.113254 0.111739 0.0680859 0.0654091 -0.115008 0.176882 0.154455 -0.0318849 0.104087 0.181087 -0.140272 0.197372 0.0162995 -0.0994032 0.183482 -0.0999492 -0.0706693 -0.131978 0.0770663 -0.0908872 -0.477487 -0.181252 -0.300749 -0.156299 -0.3531 0.0067971 -0.247484 0.123268 0.266247 -0.0191 0.105554 0.0739922 -0.00813456 -0.0486765 0.0566336 -0.106234 0.367469 0.140371 0.00380262 0.105034 -0.00892581 0.0490657 0.0379126 -0.270946 0.0862857 -0.29526 -0.0606056 0.00486589 0.0544665 -0.288093 -0.188115 -0.115768 0.322514 -0.0871488 0.125053 -0.307473 0.22678 -0.168251 0.103658 0.0398657 -0.246119 -0.155286 -0.0278376 -0.201136 -0.0824904 0.127969 -0.1784 -0.0742924 -0.0247813 0.247165 0.236042 -0.0922245 -0.284055 0.0907185 0.26511 -0.0827427 -0.0156093 -0.330515 -0.107496 -0.455106 0.096998 -0.13309 -0.2431 0.195014 -0.175612 0.0668253 0.192174 0.0725385 -0.262565 0.0567237 -0.0424083 -0.251602 -0.0168325 -0.406717 -0.214244 0.00385113 0.128959 -0.127608 -0.19931 -0.126957 0.0316816 0.0942445 -0.181155 0.0774338 -0.215031 0.0896987 -0.179716 -0.29576 -0.120538 -0.144971 -0.290061 0.164517 -0.143452 0.151381 0.0421837 -0.18263 -0.0830335 -0.259716 -0.0225029 -0.13219 0.205062 0.0611099 0.143375 -0.262841 -0.289636 -0.0724127 -0.259582 -0.0830254 -0.339507 -0.0719373 0.0221887 -0.030763 0.0884804 -0.0303485 0.296993 -0.059555 0.217487 -0.00793325 0.127271 0.13247 -0.173936 -0.0831595 0.172302 0.323677 -0.154276 0.317592 0.398925 -0.365517 -0.340154 0.0166405 -0.322432 0.214256 0.0171154 0.110266 0.127643 -0.394864 -0.102104 -0.142595 -0.360255 0.0523864 -0.0340316 0.0381355 0.150762 -0.148456 -0.0740301 -0.260495 -0.313619 -0.0588797 -0.173805 -0.490076 -0.345271 -0.0760668 0.0411952 -0.240038 -0.217728 -0.402897 -0.0974854 -0.149285 -0.255203 -0.0251676 0.147476 -0.215878 -0.0217427 0.0434965 -0.137543 0.190623 -0.172767 -0.233897 -0.359313 0.0567796 -0.228829 -0.221721 -0.235999 -0.425841 0.163571 -0.366729 -0.439802 0.0237119 -0.0843145 -0.624339 -0.187445 -0.583342 -0.127808 -0.3976 -0.100873 -0.199051 -0.339312 -0.620758 -0.0058209 -0.140571 -0.05498 0.159479 0.145818 -0.214625 0.471594 -0.109029 -0.471426 0.217756 -0.109456 -0.296326 -0.226148 0.0975632 0.201919 -0.14394 -0.386739 -0.24238 -0.100827 -0.337967 0.00426596 -0.196755 -0.282901 0.103657 -0.2156 -0.0406186 0.146648 -0.0789429 -0.522622 -0.0441401 -0.141747 -0.0157945 0.0834663 0.104484 0.106687 -0.0123933 0.310967
